{"learner":{"attributes":{"scikit_learn":"{\"_estimator_type\": \"classifier\"}"},"feature_names":[],"feature_types":[],"gradient_booster":{"model":{"cats":{"enc":[],"feature_segments":[],"sorted_idx":[]},"gbtree_model_param":{"num_parallel_tree":"1","num_trees":"1200"},"iteration_indptr":[0,3,6,9,12,15,18,21,24,27,30,33,36,39,42,45,48,51,54,57,60,63,66,69,72,75,78,81,84,87,90,93,96,99,102,105,108,111,114,117,120,123,126,129,132,135,138,141,144,147,150,153,156,159,162,165,168,171,174,177,180,183,186,189,192,195,198,201,204,207,210,213,216,219,222,225,228,231,234,237,240,243,246,249,252,255,258,261,264,267,270,273,276,279,282,285,288,291,294,297,300,303,306,309,312,315,318,321,324,327,330,333,336,339,342,345,348,351,354,357,360,363,366,369,372,375,378,381,384,387,390,393,396,399,402,405,408,411,414,417,420,423,426,429,432,435,438,441,444,447,450,453,456,459,462,465,468,471,474,477,480,483,486,489,492,495,498,501,504,507,510,513,516,519,522,525,528,531,534,537,540,543,546,549,552,555,558,561,564,567,570,573,576,579,582,585,588,591,594,597,600,603,606,609,612,615,618,621,624,627,630,633,636,639,642,645,648,651,654,657,660,663,666,669,672,675,678,681,684,687,690,693,696,699,702,705,708,711,714,717,720,723,726,729,732,735,738,741,744,747,750,753,756,759,762,765,768,771,774,777,780,783,786,789,792,795,798,801,804,807,810,813,816,819,822,825,828,831,834,837,840,843,846,849,852,855,858,861,864,867,870,873,876,879,882,885,888,891,894,897,900,903,906,909,912,915,918,921,924,927,930,933,936,939,942,945,948,951,954,957,960,963,966,969,972,975,978,981,984,987,990,993,996,999,1002,1005,1008,1011,1014,1017,1020,1023,1026,1029,1032,1035,1038,1041,1044,1047,1050,1053,1056,1059,1062,1065,1068,1071,1074,1077,1080,1083,1086,1089,1092,1095,1098,1101,1104,1107,1110,1113,1116,1119,1122,1125,1128,1131,1134,1137,1140,1143,1146,1149,1152,1155,1158,1161,1164,1167,1170,1173,1176,1179,1182,1185,1188,1191,1194,1197,1200],"tree_info":[0,1,2,0,1,2,0,1,2,0,1,2,0,1,2,0,1,2,0,1,2,0,1,2,0,1,2,0,1,2,0,1,2,0,1,2,0,1,2,0,1,2,0,1,2,0,1,2,0,1,2,0,1,2,0,1,2,0,1,2,0,1,2,0,1,2,0,1,2,0,1,2,0,1,2,0,1,2,0,1,2,0,1,2,0,1,2,0,1,2,0,1,2,0,1,2,0,1,2,0,1,2,0,1,2,0,1,2,0,1,2,0,1,2,0,1,2,0,1,2,0,1,2,0,1,2,0,1,2,0,1,2,0,1,2,0,1,2,0,1,2,0,1,2,0,1,2,0,1,2,0,1,2,0,1,2,0,1,2,0,1,2,0,1,2,0,1,2,0,1,2,0,1,2,0,1,2,0,1,2,0,1,2,0,1,2,0,1,2,0,1,2,0,1,2,0,1,2,0,1,2,0,1,2,0,1,2,0,1,2,0,1,2,0,1,2,0,1,2,0,1,2,0,1,2,0,1,2,0,1,2,0,1,2,0,1,2,0,1,2,0,1,2,0,1,2,0,1,2,0,1,2,0,1,2,0,1,2,0,1,2,0,1,2,0,1,2,0,1,2,0,1,2,0,1,2,0,1,2,0,1,2,0,1,2,0,1,2,0,1,2,0,1,2,0,1,2,0,1,2,0,1,2,0,1,2,0,1,2,0,1,2,0,1,2,0,1,2,0,1,2,0,1,2,0,1,2,0,1,2,0,1,2,0,1,2,0,1,2,0,1,2,0,1,2,0,1,2,0,1,2,0,1,2,0,1,2,0,1,2,0,1,2,0,1,2,0,1,2,0,1,2,0,1,2,0,1,2,0,1,2,0,1,2,0,1,2,0,1,2,0,1,2,0,1,2,0,1,2,0,1,2,0,1,2,0,1,2,0,1,2,0,1,2,0,1,2,0,1,2,0,1,2,0,1,2,0,1,2,0,1,2,0,1,2,0,1,2,0,1,2,0,1,2,0,1,2,0,1,2,0,1,2,0,1,2,0,1,2,0,1,2,0,1,2,0,1,2,0,1,2,0,1,2,0,1,2,0,1,2,0,1,2,0,1,2,0,1,2,0,1,2,0,1,2,0,1,2,0,1,2,0,1,2,0,1,2,0,1,2,0,1,2,0,1,2,0,1,2,0,1,2,0,1,2,0,1,2,0,1,2,0,1,2,0,1,2,0,1,2,0,1,2,0,1,2,0,1,2,0,1,2,0,1,2,0,1,2,0,1,2,0,1,2,0,1,2,0,1,2,0,1,2,0,1,2,0,1,2,0,1,2,0,1,2,0,1,2,0,1,2,0,1,2,0,1,2,0,1,2,0,1,2,0,1,2,0,1,2,0,1,2,0,1,2,0,1,2,0,1,2,0,1,2,0,1,2,0,1,2,0,1,2,0,1,2,0,1,2,0,1,2,0,1,2,0,1,2,0,1,2,0,1,2,0,1,2,0,1,2,0,1,2,0,1,2,0,1,2,0,1,2,0,1,2,0,1,2,0,1,2,0,1,2,0,1,2,0,1,2,0,1,2,0,1,2,0,1,2,0,1,2,0,1,2,0,1,2,0,1,2,0,1,2,0,1,2,0,1,2,0,1,2,0,1,2,0,1,2,0,1,2,0,1,2,0,1,2,0,1,2,0,1,2,0,1,2,0,1,2,0,1,2,0,1,2,0,1,2,0,1,2,0,1,2,0,1,2,0,1,2,0,1,2,0,1,2,0,1,2,0,1,2,0,1,2,0,1,2,0,1,2,0,1,2,0,1,2,0,1,2,0,1,2,0,1,2,0,1,2,0,1,2,0,1,2,0,1,2,0,1,2,0,1,2,0,1,2,0,1,2,0,1,2,0,1,2,0,1,2,0,1,2,0,1,2,0,1,2,0,1,2,0,1,2,0,1,2,0,1,2,0,1,2,0,1,2,0,1,2,0,1,2,0,1,2,0,1,2,0,1,2,0,1,2,0,1,2,0,1,2,0,1,2,0,1,2,0,1,2,0,1,2,0,1,2,0,1,2,0,1,2,0,1,2,0,1,2,0,1,2,0,1,2,0,1,2,0,1,2,0,1,2,0,1,2,0,1,2,0,1,2,0,1,2,0,1,2,0,1,2,0,1,2,0,1,2,0,1,2,0,1,2,0,1,2,0,1,2,0,1,2,0,1,2,0,1,2,0,1,2,0,1,2,0,1,2,0,1,2,0,1,2,0,1,2,0,1,2,0,1,2,0,1,2,0,1,2,0,1,2,0,1,2,0,1,2,0,1,2,0,1,2,0,1,2,0,1,2,0,1,2,0,1,2,0,1,2,0,1,2,0,1,2,0,1,2,0,1,2,0,1,2,0,1,2,0,1,2,0,1,2,0,1,2,0,1,2,0,1,2,0,1,2,0,1,2,0,1,2,0,1,2,0,1,2,0,1,2,0,1,2,0,1,2,0,1,2,0,1,2,0,1,2,0,1,2,0,1,2,0,1,2,0,1,2,0,1,2,0,1,2,0,1,2,0,1,2,0,1,2,0,1,2,0,1,2,0,1,2,0,1,2,0,1,2,0,1,2,0,1,2,0,1,2,0,1,2,0,1,2,0,1,2,0,1,2,0,1,2,0,1,2,0,1,2,0,1,2,0,1,2,0,1,2,0,1,2,0,1,2,0,1,2,0,1,2,0,1,2],"trees":[{"base_weights":[7.8198394E-7,-6.281316E-1,9.049069E-1,2.1012443E-1,-6.962321E-1,1.2384169E0,-2.4572867E-1,-5.645309E-1,6.1893266E-2,-7.1963644E-1,5.3015213E-2,1.36235E0,-3.3819577E-1,-6.352487E-1,7.6966953E-1,-6.100458E-3,-3.1766687E-2,-7.2930896E-1,-1.11353196E-1,4.586335E-2,-2.755401E-2,1.427882E0,-2.1132547E-1,-3.0722871E-2,2.121788E-2,-3.5387084E-2,1.3281274E-2,6.1893266E-2,-2.3927597E-2,-3.3819577E-1,-3.7217963E-2,1.3281274E-2,-2.0901624E-2,1.4643732E0,2.5790483E-8,1.3281274E-2,-2.4519214E-2,1.8345354E-2,-3.0565051E-2,7.396954E-2,1.3281274E-2],"categories":[],"categories_nodes":[],"categories_segments":[],"categories_sizes":[],"default_left":[0,0,0,0,0,0,0,0,0,0,0,0,0,0,0,0,0,0,0,0,0,0,0,0,0,0,0,0,0,0,0,0,0,0,0,0,0,0,0,0,0],"id":0,"left_children":[1,3,5,7,9,11,13,15,-1,17,19,21,23,25,27,-1,-1,29,31,-1,-1,33,35,-1,-1,-1,-1,-1,-1,37,-1,-1,-1,39,-1,-1,-1,-1,-1,-1,-1],"loss_changes":[1.5144717E2,9.124382E0,4.219825E1,1.0718439E1,2.5928955E0,1.7030914E1,1.0521897E1,1.6884398E-1,0E0,7.504196E-1,3.29577E0,8.430359E0,1.7314979E0,1.4210873E0,4.966813E0,0E0,0E0,5.6617737E-1,5.0326276E-1,0E0,0E0,3.949585E0,6.6560555E-1,0E0,0E0,0E0,0E0,0E0,0E0,1.5686947E0,0E0,0E0,0E0,9.376068E-1,0E0,0E0,0E0,0E0,0E0,0E0,0E0],"parents":[2147483647,0,0,1,1,2,2,3,3,4,4,5,5,6,6,7,7,9,9,10,10,11,11,12,12,13,13,14,14,17,17,18,18,21,21,22,22,29,29,33,33],"right_children":[2,4,6,8,10,12,14,16,-1,18,20,22,24,26,28,-1,-1,30,32,-1,-1,34,36,-1,-1,-1,-1,-1,-1,38,-1,-1,-1,40,-1,-1,-1,-1,-1,-1,-1],"split_conditions":[5.8701735E0,5.9383344E-2,2.3051782E-1,2.5151637E-1,1.6568537E0,8.866356E-1,1.6802679E0,4.891224E-4,6.1893266E-2,1.1487233E-1,3.6708963E-1,4.2231584E0,3.478892E-4,9.876273E-2,3.3638213E-2,-6.100458E-3,-3.1766687E-2,5.7186924E-2,1.127874E-1,4.586335E-2,-2.755401E-2,1.0999218E0,8.136399E-5,-3.0722871E-2,2.121788E-2,-3.5387084E-2,1.3281274E-2,6.1893266E-2,-2.3927597E-2,2.1249907E-4,-3.7217963E-2,1.3281274E-2,-2.0901624E-2,2.1312898E-2,2.5790483E-8,1.3281274E-2,-2.4519214E-2,1.8345354E-2,-3.0565051E-2,7.396954E-2,1.3281274E-2],"split_indices":[1939,1605,1595,409,1650,142,1074,1,0,1839,28,265,131,917,1557,0,0,1301,1,0,0,380,0,0,0,0,0,0,0,37,0,0,0,114,0,0,0,0,0,0,0],"split_type":[0,0,0,0,0,0,0,0,0,0,0,0,0,0,0,0,0,0,0,0,0,0,0,0,0,0,0,0,0,0,0,0,0,0,0,0,0,0,0,0,0],"sum_hessian":[2.6444427E2,1.5627399E2,1.081703E2,1.1585178E1,1.446888E2,8.380366E1,2.4366652E1,6.862959E0,4.7222195E0,1.4034436E2,4.344442E0,7.7822174E1,5.9814777E0,1.7881472E1,6.4851813E0,1.3222215E0,5.5407376E0,1.3795177E2,2.3925912E0,1.5740731E0,2.7703688E0,7.479996E1,3.0222204E0,4.533331E0,1.4481473E0,1.6748138E1,1.1333327E0,4.7222195E0,1.7629619E0,5.9814777E0,1.3197029E2,1.1333327E0,1.2592585E0,7.2911064E1,1.8888878E0,1.1333327E0,1.8888878E0,1.5740731E0,4.407405E0,7.177773E1,1.1333327E0],"tree_param":{"num_deleted":"0","num_feature":"2048","num_nodes":"41","size_leaf_vector":"1"}},{"base_weights":[-1.1042072E-6,-3.2620555E-1,1.2810233E0,-5.422716E-1,4.652373E-1,1.4029698E0,7.821988E-2,-5.889614E-1,1.0014011E0,1.0737698E-2,1.2949879E0,-2.3014804E-3,7.34029E-2,-2.8459847E-2,4.9038403E-2,-6.2108624E-1,7.2950345E-1,5.691957E-2,1.3281216E-2,-4.4012773E-1,8.5284126E-1,6.995003E-2,6.751099E-3,-6.6969883E-1,1.5752071E-1,6.751099E-3,4.9038403E-2,-3.5276707E-2,5.755535E-1,1.2093196E0,-2.5061449E-2,-3.4400474E-2,4.1803233E-2,-3.1352486E-2,5.331811E-2,-2.1351697E-2,5.3684145E-2,1.3281216E-2,6.5537296E-2],"categories":[],"categories_nodes":[],"categories_segments":[],"categories_sizes":[],"default_left":[0,0,0,0,0,0,0,0,0,0,0,0,0,0,0,0,0,0,0,0,0,0,0,0,0,0,0,0,0,0,0,0,0,0,0,0,0,0,0],"id":1,"left_children":[1,3,5,7,9,11,13,15,17,19,21,-1,-1,-1,-1,23,25,-1,-1,27,29,-1,-1,31,33,-1,-1,-1,35,37,-1,-1,-1,-1,-1,-1,-1,-1,-1],"loss_changes":[1.11340775E2,3.656785E1,7.822258E0,1.2646664E1,1.7364414E1,4.6927414E0,4.085843E0,7.3571854E0,2.2995901E-1,1.2062338E1,1.7777195E0,0E0,0E0,0E0,0E0,6.1488953E0,5.1540756E-1,0E0,0E0,5.9881372E0,5.9515686E0,0E0,0E0,4.7240143E0,7.936496E0,0E0,0E0,0E0,2.8760545E0,5.1894665E-1,0E0,0E0,0E0,0E0,0E0,0E0,0E0,0E0,0E0],"parents":[2147483647,0,0,1,1,2,2,3,3,4,4,5,5,6,6,7,7,8,8,9,9,10,10,15,15,16,16,19,19,20,20,23,23,24,24,28,28,29,29],"right_children":[2,4,6,8,10,12,14,16,18,20,22,-1,-1,-1,-1,24,26,-1,-1,28,30,-1,-1,32,34,-1,-1,-1,36,38,-1,-1,-1,-1,-1,-1,-1,-1,-1],"split_conditions":[2.2063346E0,7.0344883E-1,1.0390842E-3,8.797396E-1,1.4186442E0,9.082737E-4,2.1433456E-1,8.537134E-1,5.439969E-1,3.4199793E-2,6.0278493E-1,-2.3014804E-3,7.34029E-2,-2.8459847E-2,4.9038403E-2,3.1978545E-1,6.381273E-1,5.691957E-2,1.3281216E-2,1.4036904E-1,4.6915996E-1,6.995003E-2,6.751099E-3,7.941065E-2,6.0469553E-2,6.751099E-3,4.9038403E-2,-3.5276707E-2,1.4226923E-3,8.136399E-5,-2.5061449E-2,-3.4400474E-2,4.1803233E-2,-3.1352486E-2,5.331811E-2,-2.1351697E-2,5.3684145E-2,1.3281216E-2,6.5537296E-2],"split_indices":[817,1080,1544,398,1810,1595,30,1440,4,321,13,0,0,0,0,632,2,0,0,1988,4,0,0,465,1286,0,0,0,21,0,0,0,0,0,0,0,0,0,0],"split_type":[0,0,0,0,0,0,0,0,0,0,0,0,0,0,0,0,0,0,0,0,0,0,0,0,0,0,0,0,0,0,0,0,0,0,0,0,0,0,0],"sum_hessian":[2.644446E2,2.113668E2,5.3077812E1,1.662853E2,4.5081512E1,4.804077E1,5.0370407E0,1.6200381E2,4.281484E0,2.9781502E1,1.530001E1,2.077779E0,4.5962994E1,3.1481504E0,1.88889E0,1.5866678E2,3.3370392E0,3.1481502E0,1.1333342E0,1.970742E1,1.007408E1,1.3851861E1,1.4481491E0,1.4947418E2,9.192598E0,1.4481491E0,1.88889E0,1.5866678E1,3.8407433E0,8.059264E0,2.0148163E0,1.4821492E2,1.25926E0,5.1000032E0,4.092595E0,1.3222232E0,2.51852E0,1.1333342E0,6.9259305E0],"tree_param":{"num_deleted":"0","num_feature":"2048","num_nodes":"39","size_leaf_vector":"1"}},{"base_weights":[2.2005571E-7,-5.944457E-1,7.720486E-1,5.8368045E-1,-6.957137E-1,-1.1941873E-1,1.2385505E0,1.0970567E0,-2.9097507E-2,-7.116469E-1,2.7452162E-2,-4.4119176E-1,9.215726E-1,1.3242726E0,-2.8459817E-2,9.644544E-4,6.5063804E-2,-7.277865E-1,1.3597876E-2,6.877596E-1,-6.03491E-1,-2.4519226E-2,6.568539E-2,1.423072E0,4.0590954E-1,-3.7215825E-2,-1.2681697E-1,9.644544E-4,5.0122865E-2,-6.810601E-1,3.7638385E-2,7.325487E-2,1.7346956E-1,-3.7080523E-1,5.842882E-2,3.7638385E-2,-2.7717387E-2,-3.606789E-2,6.6406312E-3,-2.0901635E-2,3.7638385E-2,-2.7717387E-2,6.6406312E-3],"categories":[],"categories_nodes":[],"categories_segments":[],"categories_sizes":[],"default_left":[0,0,0,0,0,0,0,0,0,0,0,0,0,0,0,0,0,0,0,0,0,0,0,0,0,0,0,0,0,0,0,0,0,0,0,0,0,0,0,0,0,0,0],"id":2,"left_children":[1,3,5,7,9,11,13,15,-1,17,-1,19,21,23,-1,-1,-1,25,-1,27,29,-1,-1,31,33,-1,35,-1,-1,37,-1,-1,39,41,-1,-1,-1,-1,-1,-1,-1,-1,-1],"loss_changes":[1.2228226E2,1.836612E1,4.8350456E1,8.094141E0,3.1490479E0,1.4049503E1,1.2558556E1,1.9549932E0,0E0,2.384781E0,0E0,6.239668E0,6.1481905E0,6.0485992E0,0E0,0E0,0E0,1.2546921E0,0E0,9.195199E-1,3.4926748E0,0E0,0E0,3.1875458E0,5.46411E0,0E0,2.2376525E0,0E0,0E0,9.9177456E-1,0E0,0E0,1.4340248E0,5.3271943E-1,0E0,0E0,0E0,0E0,0E0,0E0,0E0,0E0,0E0],"parents":[2147483647,0,0,1,1,2,2,3,3,4,4,5,5,6,6,7,7,9,9,11,11,12,12,13,13,17,17,19,19,20,20,23,23,24,24,26,26,29,29,32,32,33,33],"right_children":[2,4,6,8,10,12,14,16,-1,18,-1,20,22,24,-1,-1,-1,26,-1,28,30,-1,-1,32,34,-1,36,-1,-1,38,-1,-1,40,42,-1,-1,-1,-1,-1,-1,-1,-1,-1],"split_conditions":[5.246482E-1,9.398011E-2,3.1759064E0,8.990247E-2,1.2966446E0,3.6532865E0,2.1014166E0,5.3984962E-2,-2.9097507E-2,6.169009E-1,2.7452162E-2,3.567759E-2,1.18735366E-1,7.2120434E-1,-2.8459817E-2,9.644544E-4,6.5063804E-2,1.1170436E-2,1.3597876E-2,4.0630417E-4,1.3837454E0,-2.4519226E-2,6.568539E-2,2.4229813E-1,1.4064918E-1,-3.7215825E-2,2.0347275E-2,9.644544E-4,5.0122865E-2,1.6815708E0,3.7638385E-2,7.325487E-2,5.7367404E-4,6.773137E-1,5.842882E-2,3.7638385E-2,-2.7717387E-2,-3.606789E-2,6.6406312E-3,-2.0901635E-2,3.7638385E-2,-2.7717387E-2,6.6406312E-3],"split_indices":[1905,793,564,1821,128,1905,1039,2,0,1790,0,1245,806,1209,0,0,0,1324,0,3,55,0,0,1025,1045,0,81,0,0,73,0,0,12,2,0,0,0,0,0,0,0,0,0],"split_type":[0,0,0,0,0,0,0,0,0,0,0,0,0,0,0,0,0,0,0,0,0,0,0,0,0,0,0,0,0,0,0,0,0,0,0,0,0,0,0,0,0,0,0],"sum_hessian":[2.644444E2,1.49537E2,1.1490738E2,1.1459257E1,1.3807774E2,3.972962E1,7.5177765E1,7.9962945E0,3.4629622E0,1.3675552E2,1.322222E0,3.0788881E1,8.940739E0,7.202962E1,3.1481476E0,1.4481478E0,6.5481467E0,1.3480368E2,1.9518514E0,3.4629622E0,2.732592E1,1.8888885E0,7.0518503E0,6.4537025E1,7.492591E0,1.3096294E2,3.84074E0,1.4481478E0,2.0148144E0,2.6318512E1,1.0074072E0,6.2270355E1,2.2666662E0,3.9666657E0,3.5259252E0,1.0074072E0,2.8333328E0,2.518518E1,1.1333331E0,1.259259E0,1.0074072E0,2.8333328E0,1.1333331E0],"tree_param":{"num_deleted":"0","num_feature":"2048","num_nodes":"43","size_leaf_vector":"1"}},{"base_weights":[-4.8699186E-4,-6.1509085E-1,8.531751E-1,2.0343535E-1,-6.8297225E-1,1.1595658E0,-2.3986022E-1,-5.526407E-1,5.8456022E-2,-7.06314E-1,4.9977623E-2,1.2721378E0,-3.2929033E-1,-6.234568E-1,7.292519E-1,-5.7844208E-3,-3.1177659E-2,-7.1601105E-1,-1.0559368E-1,4.401436E-2,-2.7177427E-2,1.3315146E0,-2.0608029E-1,2.093181E-2,-3.0235771E-2,-3.4782734E-2,1.2714651E-2,5.8481287E-2,-2.3717118E-2,-3.300603E-1,-3.6550954E-2,1.3140577E-2,-2.0484028E-2,1.3649291E0,-3.4158825E-4,1.2851055E-2,-2.4050403E-2,1.8111937E-2,-3.0110333E-2,6.8944655E-2,1.22566745E-2],"categories":[],"categories_nodes":[],"categories_segments":[],"categories_sizes":[],"default_left":[0,0,0,0,0,0,0,0,0,0,0,0,0,0,0,0,0,0,0,0,0,0,0,0,0,0,0,0,0,0,0,0,0,0,0,0,0,0,0,0,0],"id":3,"left_children":[1,3,5,7,9,11,13,15,-1,17,19,21,23,25,27,-1,-1,29,31,-1,-1,33,35,-1,-1,-1,-1,-1,-1,37,-1,-1,-1,39,-1,-1,-1,-1,-1,-1,-1],"loss_changes":[1.3966652E2,8.738472E0,3.759561E1,9.862512E0,2.4843292E0,1.5034752E1,9.832053E0,1.6827297E-1,0E0,7.3291016E-1,3.1159866E0,7.4085236E0,1.6795712E0,1.3563099E0,4.5905437E0,0E0,0E0,5.489044E-1,4.8608497E-1,0E0,0E0,3.5098572E0,6.335126E-1,0E0,0E0,0E0,0E0,0E0,0E0,1.5236857E0,0E0,0E0,0E0,8.5621643E-1,0E0,0E0,0E0,0E0,0E0,0E0,0E0],"parents":[2147483647,0,0,1,1,2,2,3,3,4,4,5,5,6,6,7,7,9,9,10,10,11,11,12,12,13,13,14,14,17,17,18,18,21,21,22,22,29,29,33,33],"right_children":[2,4,6,8,10,12,14,16,-1,18,20,22,24,26,28,-1,-1,30,32,-1,-1,34,36,-1,-1,-1,-1,-1,-1,38,-1,-1,-1,40,-1,-1,-1,-1,-1,-1,-1],"split_conditions":[5.8701735E0,5.9383344E-2,2.3051782E-1,2.5151637E-1,1.6568537E0,8.866356E-1,1.6802679E0,6.207771E-1,5.8456022E-2,1.1487233E-1,3.6708963E-1,4.2231584E0,1.0092782E-1,9.876273E-2,3.3638213E-2,-5.7844208E-3,-3.1177659E-2,5.7186924E-2,1.127874E-1,4.401436E-2,-2.7177427E-2,1.0999218E0,8.136399E-5,2.093181E-2,-3.0235771E-2,-3.4782734E-2,1.2714651E-2,5.8481287E-2,-2.3717118E-2,6.36283E-2,-3.6550954E-2,1.3140577E-2,-2.0484028E-2,4.526732E-1,-3.4158825E-4,1.2851055E-2,-2.4050403E-2,1.8111937E-2,-3.0110333E-2,6.8944655E-2,1.22566745E-2],"split_indices":[1939,1605,1595,409,1650,142,1074,85,0,1839,28,265,307,917,1557,0,0,1301,1,0,0,380,0,0,0,0,0,0,0,68,0,0,0,231,0,0,0,0,0,0,0],"split_type":[0,0,0,0,0,0,0,0,0,0,0,0,0,0,0,0,0,0,0,0,0,0,0,0,0,0,0,0,0,0,0,0,0,0,0,0,0,0,0,0,0],"sum_hessian":[2.642016E2,1.537715E2,1.1043009E2,1.1622946E1,1.4214854E2,8.6204956E1,2.4225136E1,6.7588644E0,4.864082E0,1.3779657E2,4.3519716E0,8.028053E1,5.9244237E0,1.7610981E1,6.614153E0,1.3111529E0,5.4477115E0,1.3541869E2,2.377895E0,1.6127197E0,2.7392519E0,7.727578E1,3.0047574E0,1.4545574E0,4.4698663E0,1.6464201E1,1.1467804E0,4.863066E0,1.7510868E0,5.92939E0,1.2948929E2,1.1366112E0,1.2412839E0,7.537405E1,1.9017303E0,1.1435834E0,1.8611739E0,1.5797364E0,4.3496537E0,7.421718E1,1.1568707E0],"tree_param":{"num_deleted":"0","num_feature":"2048","num_nodes":"41","size_leaf_vector":"1"}},{"base_weights":[4.447421E-4,-3.1660935E-1,1.1994883E0,-5.294684E-1,4.4492248E-1,1.309927E0,7.598762E-2,-5.758618E-1,9.5238537E-1,1.0827522E-2,1.2146074E0,-2.2247701E-3,6.843698E-2,-2.7955819E-2,4.681164E-2,-6.0783637E-1,6.974792E-1,1.2509087E-2,5.4213047E-2,-4.2916536E-1,8.0897677E-1,6.070172E-3,6.557641E-2,-6.562764E-1,1.5361325E-1,6.1304322E-3,4.715354E-2,-3.4631897E-2,5.507645E-1,1.1416922E0,-2.4687933E-2,-3.373488E-2,4.100826E-2,-3.0740773E-2,5.0635166E-2,-2.0953657E-2,5.0988954E-2,1.2695993E-2,6.177717E-2],"categories":[],"categories_nodes":[],"categories_segments":[],"categories_sizes":[],"default_left":[0,0,0,0,0,0,0,0,0,0,0,0,0,0,0,0,0,0,0,0,0,0,0,0,0,0,0,0,0,0,0,0,0,0,0,0,0,0,0],"id":4,"left_children":[1,3,5,7,9,11,13,15,17,19,21,-1,-1,-1,-1,23,25,-1,-1,27,29,-1,-1,31,33,-1,-1,-1,35,37,-1,-1,-1,-1,-1,-1,-1,-1,-1],"loss_changes":[1.0114573E2,3.4344604E1,6.8041153E0,1.1885754E1,1.5526797E1,4.0914307E0,3.8241446E0,6.959751E0,2.2722673E-1,1.114506E1,1.616909E0,0E0,0E0,0E0,0E0,5.8964806E0,5.0528026E-1,0E0,0E0,5.66761E0,5.4499707E0,0E0,0E0,4.5764885E0,7.361661E0,0E0,0E0,0E0,2.6541529E0,4.5960808E-1,0E0,0E0,0E0,0E0,0E0,0E0,0E0,0E0,0E0],"parents":[2147483647,0,0,1,1,2,2,3,3,4,4,5,5,6,6,7,7,8,8,9,9,10,10,15,15,16,16,19,19,20,20,23,23,24,24,28,28,29,29],"right_children":[2,4,6,8,10,12,14,16,18,20,22,-1,-1,-1,-1,24,26,-1,-1,28,30,-1,-1,32,34,-1,-1,-1,36,38,-1,-1,-1,-1,-1,-1,-1,-1,-1],"split_conditions":[2.2063346E0,7.0344883E-1,1.0390842E-3,8.797396E-1,1.4186442E0,9.082737E-4,2.1433456E-1,8.537134E-1,2.3354073E-4,3.4199793E-2,1.3257961E-2,-2.2247701E-3,6.843698E-2,-2.7955819E-2,4.681164E-2,3.1978545E-1,6.1345227E-2,1.2509087E-2,5.4213047E-2,1.4036904E-1,9.506549E-3,6.070172E-3,6.557641E-2,1.7978846E0,6.0469553E-2,6.1304322E-3,4.715354E-2,-3.4631897E-2,1.4226923E-3,1.3412554E-3,-2.4687933E-2,-3.373488E-2,4.100826E-2,-3.0740773E-2,5.0635166E-2,-2.0953657E-2,5.0988954E-2,1.2695993E-2,6.177717E-2],"split_indices":[817,1080,1544,398,1810,1595,30,1440,14,321,450,0,0,0,0,632,6,0,0,1988,1658,0,0,1487,1286,0,0,0,21,28,0,0,0,0,0,0,0,0,0],"split_type":[0,0,0,0,0,0,0,0,0,0,0,0,0,0,0,0,0,0,0,0,0,0,0,0,0,0,0,0,0,0,0,0,0,0,0,0,0,0,0],"sum_hessian":[2.640608E2,2.094211E2,5.4639706E1,1.639105E2,4.5510593E1,4.959832E1,5.041386E0,1.5952745E2,4.3830433E0,2.9747406E1,1.5763188E1,2.0741966E0,4.752412E1,3.101588E0,1.9397982E0,1.5612956E2,3.3978894E0,1.1510584E0,3.231985E0,1.947422E1,1.0273185E1,1.4671624E0,1.4296025E1,1.4692122E2,9.208348E0,1.4658731E0,1.9320164E0,1.5578755E1,3.8954654E0,8.281683E0,1.9915023E0,1.4564705E2,1.2741749E0,5.0107408E0,4.197607E0,1.3044922E0,2.590973E0,1.1460774E0,7.1356053E0],"tree_param":{"num_deleted":"0","num_feature":"2048","num_nodes":"39","size_leaf_vector":"1"}},{"base_weights":[4.2514577E-5,-5.812384E-1,7.305495E-1,5.5645394E-1,-6.820417E-1,-1.1559499E-1,1.1594915E0,1.0373896E0,-2.8605197E-2,-6.980672E-1,2.6974535E-2,-4.302532E-1,8.7103796E-1,1.2380931E0,-2.8055629E-2,6.14441E-2,6.169134E-4,1.9603593E-2,-7.143742E-1,6.5406513E-1,-5.908673E-1,-2.4273356E-2,6.1861593E-2,1.3273441E0,3.8844165E-1,-3.6545828E-2,-1.2000966E-1,4.815823E-2,2.9384537E-4,-6.6856575E-1,3.6588293E-2,6.827649E-2,1.6334714E-1,-3.669463E-1,5.5679776E-2,3.6510784E-2,-2.7170092E-2,6.6706995E-3,-3.5449486E-2,-2.0785438E-2,3.627724E-2,6.3955705E-3,-2.7422888E-2],"categories":[],"categories_nodes":[],"categories_segments":[],"categories_sizes":[],"default_left":[0,0,0,0,0,0,0,0,0,0,0,0,0,0,0,0,0,0,0,0,0,0,0,0,0,0,0,0,0,0,0,0,0,0,0,0,0,0,0,0,0,0,0],"id":5,"left_children":[1,3,5,7,9,11,13,15,-1,17,-1,19,21,23,-1,-1,-1,-1,25,27,29,-1,-1,31,33,-1,35,-1,-1,37,-1,-1,39,41,-1,-1,-1,-1,-1,-1,-1,-1,-1],"loss_changes":[1.12999756E2,1.7374775E1,4.2932922E1,7.4390464E0,3.0502548E0,1.2972319E1,1.1289925E1,1.7905273E0,0E0,2.6843796E0,0E0,5.8611665E0,5.638911E0,5.1893845E0,0E0,0E0,0E0,0E0,1.2259598E0,9.019947E-1,3.3569603E0,0E0,0E0,2.7845993E0,5.1003895E0,0E0,2.1298716E0,0E0,0E0,9.6599865E-1,0E0,0E0,1.3710971E0,5.1453024E-1,0E0,0E0,0E0,0E0,0E0,0E0,0E0,0E0,0E0],"parents":[2147483647,0,0,1,1,2,2,3,3,4,4,5,5,6,6,7,7,9,9,11,11,12,12,13,13,18,18,19,19,20,20,23,23,24,24,26,26,29,29,32,32,33,33],"right_children":[2,4,6,8,10,12,14,16,-1,18,-1,20,22,24,-1,-1,-1,-1,26,28,30,-1,-1,32,34,-1,36,-1,-1,38,-1,-1,40,42,-1,-1,-1,-1,-1,-1,-1,-1,-1],"split_conditions":[5.246482E-1,9.398011E-2,3.1759064E0,8.990247E-2,1.2345368E1,3.6532865E0,2.1014166E0,3.329247E-1,-2.8605197E-2,2.084333E-3,2.6974535E-2,3.567759E-2,1.18735366E-1,7.2120434E-1,-2.8055629E-2,6.14441E-2,6.169134E-4,1.9603593E-2,1.1170436E-2,8.9280404E-2,2.37442E0,-2.4273356E-2,6.1861593E-2,2.4229813E-1,1.2781259E0,-3.6545828E-2,2.0347275E-2,4.815823E-2,2.9384537E-4,9.024747E-3,3.6588293E-2,6.827649E-2,5.7367404E-4,9.503763E-3,5.5679776E-2,3.6510784E-2,-2.7170092E-2,6.6706995E-3,-3.5449486E-2,-2.0785438E-2,3.627724E-2,6.3955705E-3,-2.7422888E-2],"split_indices":[1905,793,564,1821,1057,1905,1039,46,0,1325,0,1245,806,1209,0,0,0,0,1324,33,724,0,0,1025,1068,0,81,0,0,2,0,0,12,8,0,0,0,0,0,0,0,0,0],"split_type":[0,0,0,0,0,0,0,0,0,0,0,0,0,0,0,0,0,0,0,0,0,0,0,0,0,0,0,0,0,0,0,0,0,0,0,0,0,0,0,0,0,0,0],"sum_hessian":[2.6411362E2,1.471931E2,1.16920525E2,1.1612397E1,1.355807E2,3.957808E1,7.734245E1,8.19912E0,3.4132771E0,1.3424802E2,1.3326913E0,3.0435476E1,9.142603E0,7.423178E1,3.1106648E0,6.740973E0,1.4581466E0,1.6389554E0,1.3260905E2,3.5302432E0,2.6905233E1,1.8742055E0,7.2683973E0,6.6666626E1,7.5651617E0,1.2879468E2,3.814371E0,2.0613298E0,1.4689132E0,2.5879456E1,1.0257782E0,6.438141E1,2.2852159E0,3.9472802E0,3.6178813E0,1.0271149E0,2.7872562E0,1.131474E0,2.474798E1,1.2540874E0,1.0311284E0,1.1385447E0,2.8087356E0],"tree_param":{"num_deleted":"0","num_feature":"2048","num_nodes":"43","size_leaf_vector":"1"}},{"base_weights":[-9.621714E-4,-6.0284877E-1,8.079964E-1,1.970627E-1,-6.7049795E-1,1.0912758E0,-2.3350222E-1,-5.411015E-1,5.53764E-2,-6.9378716E-1,4.7044378E-2,1.194495E0,-3.2060665E-1,-6.116386E-1,6.9441956E-1,-5.472266E-3,-3.0610064E-2,-7.035476E-1,-9.824967E-2,4.230234E-2,-2.6810253E-2,1.2377601E0,-2.3590133E-2,2.0500334E-2,-2.9727925E-2,-3.4183316E-2,1.2218975E-2,5.541866E-2,-2.3357986E-2,-3.2042503E-1,-3.5930127E-2,1.3010922E-2,-1.998357E-2,1.2680162E0,-6.6729885E-4,1.8008776E-2,-2.9612163E-2,6.470839E-2,-7.061114E-3],"categories":[],"categories_nodes":[],"categories_segments":[],"categories_sizes":[],"default_left":[0,0,0,0,0,0,0,0,0,0,0,0,0,0,0,0,0,0,0,0,0,0,0,0,0,0,0,0,0,0,0,0,0,0,0,0,0,0,0],"id":6,"left_children":[1,3,5,7,9,11,13,15,-1,17,19,21,23,25,27,-1,-1,29,31,-1,-1,33,-1,-1,-1,-1,-1,-1,-1,35,-1,-1,-1,37,-1,-1,-1,-1,-1],"loss_changes":[1.2919067E2,8.364769E0,3.3651337E1,9.091549E0,2.3805466E0,1.3377518E1,9.206733E0,1.6778255E-1,0E0,7.222595E-1,2.94842E0,6.5895386E0,1.6174295E0,1.2962456E0,4.227305E0,0E0,0E0,5.414276E-1,4.668008E-1,0E0,0E0,3.1009216E0,0E0,0E0,0E0,0E0,0E0,0E0,0E0,1.4830136E0,0E0,0E0,0E0,3.1147614E0,0E0,0E0,0E0,0E0,0E0],"parents":[2147483647,0,0,1,1,2,2,3,3,4,4,5,5,6,6,7,7,9,9,10,10,11,11,12,12,13,13,14,14,17,17,18,18,21,21,29,29,33,33],"right_children":[2,4,6,8,10,12,14,16,-1,18,20,22,24,26,28,-1,-1,30,32,-1,-1,34,-1,-1,-1,-1,-1,-1,-1,36,-1,-1,-1,38,-1,-1,-1,-1,-1],"split_conditions":[5.8701735E0,5.9383344E-2,2.3051782E-1,2.5151637E-1,1.6568537E0,8.866356E-1,1.6802679E0,1.2953544E-2,5.53764E-2,1.1487233E-1,3.6708963E-1,1.7117798E0,4.5629425E-4,9.876273E-2,3.3638213E-2,-5.472266E-3,-3.0610064E-2,5.7186924E-2,1.127874E-1,4.230234E-2,-2.6810253E-2,1.0999218E0,-2.3590133E-2,2.0500334E-2,-2.9727925E-2,-3.4183316E-2,1.2218975E-2,5.541866E-2,-2.3357986E-2,3.3660825E-2,-3.5930127E-2,1.3010922E-2,-1.998357E-2,2.8883487E-1,-6.6729885E-4,1.8008776E-2,-2.9612163E-2,6.470839E-2,-7.061114E-3],"split_indices":[1939,1605,1595,409,1650,142,1074,117,0,1839,28,1896,161,917,1557,0,0,1301,1,0,0,380,0,0,0,0,0,0,0,171,0,0,0,357,0,0,0,0,0],"split_type":[0,0,0,0,0,0,0,0,0,0,0,0,0,0,0,0,0,0,0,0,0,0,0,0,0,0,0,0,0,0,0,0,0,0,0,0,0,0,0],"sum_hessian":[2.6333197E2,1.5113689E2,1.1219507E2,1.1635927E1,1.3950096E2,8.816664E1,2.4028429E1,6.6500516E0,4.985875E0,1.351476E2,4.353371E0,8.2303604E1,5.8630376E0,1.7313766E1,6.7146626E0,1.2995615E0,5.3504906E0,1.327899E2,2.357693E0,1.6468084E0,2.7065628E0,8.047136E1,1.8322399E0,1.4634542E0,4.3995833E0,1.6155722E1,1.1580455E0,4.98423E0,1.7304322E0,5.863267E0,1.26926636E2,1.1393766E0,1.2183163E0,7.855803E1,1.9133304E0,1.5805919E0,4.282675E0,7.720695E1,1.3510865E0],"tree_param":{"num_deleted":"0","num_feature":"2048","num_nodes":"39","size_leaf_vector":"1"}},{"base_weights":[8.806209E-4,-3.0756667E-1,1.1291003E0,-5.172427E-1,4.2645043E-1,1.1890469E0,-2.3398306E-2,-5.633403E-1,9.078509E-1,1.0805559E-2,1.1445447E0,1.2389333E0,-2.6948096E-3,-5.9519464E-1,6.696377E-1,5.1758863E-2,1.1779866E-2,-4.189076E-1,7.696009E-1,5.433425E-3,6.178003E-2,6.378169E-2,2.9694715E-3,-6.4345723E-1,1.500213E-1,5.670853E-3,4.539844E-2,-3.402234E-2,5.279221E-1,1.0818764E0,-2.4314618E-2,-3.3095296E-2,3.9467346E-2,-3.0151451E-2,4.821246E-2,-2.0560278E-2,4.8553E-2,1.2146734E-2,5.846138E-2],"categories":[],"categories_nodes":[],"categories_segments":[],"categories_sizes":[],"default_left":[0,0,0,0,0,0,0,0,0,0,0,0,0,0,0,0,0,0,0,0,0,0,0,0,0,0,0,0,0,0,0,0,0,0,0,0,0,0,0],"id":7,"left_children":[1,3,5,7,9,11,-1,13,15,17,19,21,-1,23,25,-1,-1,27,29,-1,-1,-1,-1,31,33,-1,-1,-1,35,37,-1,-1,-1,-1,-1,-1,-1,-1,-1],"loss_changes":[9.225389E1,3.2261665E1,6.0054703E0,1.117886E1,1.3957429E1,3.4857483E0,0E0,6.6006203E0,2.2440052E-1,1.0317809E1,1.4833221E0,2.2209015E0,0E0,5.651989E0,4.8660207E-1,0E0,0E0,5.3660774E0,5.011089E0,0E0,0E0,0E0,0E0,4.3620987E0,6.839355E0,0E0,0E0,0E0,2.4548497E0,4.098463E-1,0E0,0E0,0E0,0E0,0E0,0E0,0E0,0E0,0E0],"parents":[2147483647,0,0,1,1,2,2,3,3,4,4,5,5,7,7,8,8,9,9,10,10,11,11,13,13,14,14,17,17,18,18,23,23,24,24,28,28,29,29],"right_children":[2,4,6,8,10,12,-1,14,16,18,20,22,-1,24,26,-1,-1,28,30,-1,-1,-1,-1,32,34,-1,-1,-1,36,38,-1,-1,-1,-1,-1,-1,-1,-1,-1],"split_conditions":[2.2063346E0,7.0344883E-1,1.7133627E0,8.797396E-1,1.4186442E0,1.106225E0,-2.3398306E-2,8.537134E-1,4.2000596E-5,3.4199793E-2,1.4046945E-1,4.002273E0,-2.6948096E-3,3.1978545E-1,7.215312E-2,5.1758863E-2,1.1779866E-2,1.4036904E-1,4.0706092E-1,5.433425E-3,6.178003E-2,6.378169E-2,2.9694715E-3,1.7978846E0,6.0469553E-2,5.670853E-3,4.539844E-2,-3.402234E-2,1.4226923E-3,1.6794235E-1,-2.4314618E-2,-3.3095296E-2,3.9467346E-2,-3.0151451E-2,4.821246E-2,-2.0560278E-2,4.8553E-2,1.2146734E-2,5.846138E-2],"split_indices":[817,1080,543,398,1810,412,0,1440,16,321,953,228,0,632,3,0,0,1988,1920,0,0,0,0,1487,1286,0,0,0,21,85,0,0,0,0,0,0,0,0,0],"split_type":[0,0,0,0,0,0,0,0,0,0,0,0,0,0,0,0,0,0,0,0,0,0,0,0,0,0,0,0,0,0,0,0,0,0,0,0,0,0,0],"sum_hessian":[2.6310226E2,2.0718636E2,5.59159E1,1.6138202E2,4.580434E1,5.4139248E1,1.7766567E0,1.569111E2,4.470914E0,2.9654736E1,1.6149605E1,5.2053272E1,2.085974E0,1.5346361E2,3.4474978E0,3.3050659E0,1.1658483E0,1.9218847E1,1.0435888E1,1.4821129E0,1.4667492E1,5.040355E1,1.649724E0,1.4425755E2,9.206048E0,1.4768002E0,1.9706976E0,1.5279572E1,3.939276E0,8.468718E0,1.9671705E0,1.4295493E2,1.3026359E0,4.9174547E0,4.2885933E0,1.2859867E0,2.6532893E0,1.1551831E0,7.3135347E0],"tree_param":{"num_deleted":"0","num_feature":"2048","num_nodes":"39","size_leaf_vector":"1"}},{"base_weights":[8.233273E-5,-5.6879604E-1,6.938619E-1,5.3100824E-1,-6.691022E-1,-1.1212813E-1,1.0913258E0,9.8314285E-1,-2.8125996E-2,-6.851975E-1,2.6241576E-2,-4.199314E-1,8.259276E-1,1.164078E0,-2.7662957E-2,5.817453E-2,2.8733365E-4,-7.0151836E-1,1.3388447E-2,6.227112E-1,-5.788902E-1,-2.403126E-2,5.8506854E-2,1.245294E0,3.7431479E-1,-3.5908226E-2,-1.13446E-1,4.634145E-2,-3.523369E-4,-6.567215E-1,3.553241E-2,1.2734593E0,-8.708333E-4,-3.5985354E-1,5.308605E-2,3.5444107E-2,-2.6640335E-2,-3.486854E-2,6.8327114E-3,6.457884E-2,5.8678254E-3,-2.7059859E-2,6.483007E-3],"categories":[],"categories_nodes":[],"categories_segments":[],"categories_sizes":[],"default_left":[0,0,0,0,0,0,0,0,0,0,0,0,0,0,0,0,0,0,0,0,0,0,0,0,0,0,0,0,0,0,0,0,0,0,0,0,0,0,0,0,0,0,0],"id":8,"left_children":[1,3,5,7,9,11,13,15,-1,17,-1,19,21,23,-1,-1,-1,25,-1,27,29,-1,-1,31,33,-1,35,-1,-1,37,-1,39,-1,41,-1,-1,-1,-1,-1,-1,-1,-1,-1],"loss_changes":[1.0465643E2,1.6428555E1,3.8394775E1,6.8496428E0,2.9339828E0,1.2001417E1,1.02284775E1,1.6456652E0,0E0,2.2504807E0,0E0,5.507386E0,5.1988435E0,4.4749756E0,0E0,0E0,0E0,1.1975708E0,0E0,8.8560164E-1,3.2232265E0,0E0,0E0,2.491127E0,4.7287874E0,0E0,2.0275712E0,0E0,0E0,9.4738483E-1,0E0,1.2710571E0,0E0,5.0618315E-1,0E0,0E0,0E0,0E0,0E0,0E0,0E0,0E0,0E0],"parents":[2147483647,0,0,1,1,2,2,3,3,4,4,5,5,6,6,7,7,9,9,11,11,12,12,13,13,17,17,19,19,20,20,23,23,24,24,26,26,29,29,31,31,33,33],"right_children":[2,4,6,8,10,12,14,16,-1,18,-1,20,22,24,-1,-1,-1,26,-1,28,30,-1,-1,32,34,-1,36,-1,-1,38,-1,40,-1,42,-1,-1,-1,-1,-1,-1,-1,-1,-1],"split_conditions":[5.246482E-1,9.398011E-2,3.1759064E0,8.990247E-2,1.2966446E0,3.6532865E0,2.1014166E0,2.344304E0,-2.8125996E-2,6.169009E-1,2.6241576E-2,3.567759E-2,1.18735366E-1,7.2120434E-1,-2.7662957E-2,5.817453E-2,2.8733365E-4,1.1170436E-2,1.3388447E-2,4.7204527E-1,1.0005329E0,-2.403126E-2,5.8506854E-2,2.3849407E-2,1.2781259E0,-3.5908226E-2,2.0347275E-2,4.634145E-2,-3.523369E-4,1.3741387E0,3.553241E-2,7.417598E-1,-8.708333E-4,3.9356135E-2,5.308605E-2,3.5444107E-2,-2.6640335E-2,-3.486854E-2,6.8327114E-3,6.457884E-2,5.8678254E-3,-2.7059859E-2,6.483007E-3],"split_indices":[1905,793,564,1821,128,1905,1039,500,0,1790,0,1245,806,1209,0,0,0,1324,0,73,485,0,0,1625,1068,0,81,0,0,55,0,18,0,0,0,0,0,0,0,0,0,0,0],"split_type":[0,0,0,0,0,0,0,0,0,0,0,0,0,0,0,0,0,0,0,0,0,0,0,0,0,0,0,0,0,0,0,0,0,0,0,0,0,0,0,0,0,0,0],"sum_hessian":[2.6317038E2,1.4470049E2,1.184699E2,1.173529E1,1.329652E2,3.9364067E1,7.9105835E1,8.3739195E0,3.3613706E0,1.3161699E2,1.348213E0,3.0054615E1,9.309452E0,7.603444E1,3.0713952E0,6.9087324E0,1.4651871E0,1.2966022E2,1.9567603E0,3.589953E0,2.6464663E1,1.8585265E0,7.450926E0,6.842146E1,7.6129704E0,1.2587593E2,3.7842944E0,2.1027749E0,1.4871781E0,2.5421082E1,1.0435812E0,6.6920265E1,1.5012017E0,3.9116876E0,3.701283E0,1.044918E0,2.7393763E0,2.42972E1,1.1238815E0,6.5772354E1,1.1479096E0,2.7772539E0,1.1344337E0],"tree_param":{"num_deleted":"0","num_feature":"2048","num_nodes":"43","size_leaf_vector":"1"}},{"base_weights":[-1.4359241E-3,-5.911752E-1,7.675941E-1,7.086943E-2,-6.7207736E-1,1.0316346E0,-2.2841987E-1,-4.741215E-1,9.587965E-1,7.3793614E-3,-6.8690836E-1,1.1270559E0,-3.1218064E-1,-6.011099E-1,6.628415E-1,-3.2265496E-2,3.1662606E-2,5.3083587E-2,1.2007582E-2,-6.969772E-1,-9.4288334E-2,1.1670991E0,-2.313952E-2,2.0084273E-2,-2.9234627E-2,-3.3647146E-2,1.1709608E-2,5.269118E-2,-2.3001663E-2,-7.021802E-1,-6.4586834E-3,1.2733017E-2,-1.9591747E-2,1.1954577E0,-9.783417E-4,-3.5371255E-2,-6.7430185E-3,6.0992E-2,-7.069283E-3],"categories":[],"categories_nodes":[],"categories_segments":[],"categories_sizes":[],"default_left":[0,0,0,0,0,0,0,0,0,0,0,0,0,0,0,0,0,0,0,0,0,0,0,0,0,0,0,0,0,0,0,0,0,0,0,0,0,0,0],"id":9,"left_children":[1,3,5,7,9,11,13,15,17,-1,19,21,23,25,27,-1,-1,-1,-1,29,31,33,-1,-1,-1,-1,-1,-1,-1,35,-1,-1,-1,37,-1,-1,-1,-1,-1],"loss_changes":[1.1967624E2,8.046818E0,3.0355843E1,8.762205E0,1.7203674E0,1.198378E1,8.642186E0,2.5521574E0,2.5222874E-1,0E0,7.1590424E-1,5.9460526E0,1.5571935E0,1.2391243E0,3.9063375E0,0E0,0E0,0E0,0E0,2.893486E-1,4.470746E-1,2.8203125E0,0E0,0E0,0E0,0E0,0E0,0E0,0E0,2.8323364E-1,0E0,0E0,0E0,2.81884E0,0E0,0E0,0E0,0E0,0E0],"parents":[2147483647,0,0,1,1,2,2,3,3,4,4,5,5,6,6,7,7,8,8,10,10,11,11,12,12,13,13,14,14,19,19,20,20,21,21,29,29,33,33],"right_children":[2,4,6,8,10,12,14,16,18,-1,20,22,24,26,28,-1,-1,-1,-1,30,32,34,-1,-1,-1,-1,-1,-1,-1,36,-1,-1,-1,38,-1,-1,-1,-1,-1],"split_conditions":[5.8701735E0,1.1079469E-1,2.3051782E-1,4.293974E-2,2.5062274E-2,8.866356E-1,1.6802679E0,8.292785E-3,8.174781E-2,7.3793614E-3,1.1487233E-1,1.7117798E0,5.1217895E-2,9.876273E-2,3.3638213E-2,-3.2265496E-2,3.1662606E-2,5.3083587E-2,1.2007582E-2,6.4776975E-1,1.127874E-1,1.0999218E0,-2.313952E-2,2.0084273E-2,-2.9234627E-2,-3.3647146E-2,1.1709608E-2,5.269118E-2,-2.3001663E-2,4.280496E-2,-6.4586834E-3,1.2733017E-2,-1.9591747E-2,2.8883487E-1,-9.783417E-4,-3.5371255E-2,-6.7430185E-3,6.0992E-2,-7.069283E-3],"split_indices":[1939,1605,1595,1541,787,142,1074,1268,37,0,1839,1896,236,917,1557,0,0,0,0,777,1,380,0,0,0,0,0,0,0,2010,0,0,0,357,0,0,0,0,0],"split_type":[0,0,0,0,0,0,0,0,0,0,0,0,0,0,0,0,0,0,0,0,0,0,0,0,0,0,0,0,0,0,0,0,0,0,0,0,0,0,0],"sum_hessian":[2.618783E2,1.4834758E2,1.1353072E2,1.6167616E1,1.3217996E2,8.971245E1,2.3818281E1,1.0307267E1,5.860348E0,2.1900642E0,1.299899E2,8.391512E1,5.797325E0,1.7024757E1,6.7935243E0,9.288607E0,1.018661E0,4.708932E0,1.1514163E0,1.2764506E2,2.3448408E0,8.211286E1,1.802261E0,1.4707003E0,4.326625E0,1.5855603E1,1.169153E0,5.0845814E0,1.7089432E0,1.2625151E2,1.3935488E0,1.145539E0,1.1993016E0,8.018912E1,1.9237413E0,1.2485031E2,1.4011953E0,7.883873E1,1.3503921E0],"tree_param":{"num_deleted":"0","num_feature":"2048","num_nodes":"39","size_leaf_vector":"1"}},{"base_weights":[1.2889681E-3,-2.9894742E-1,1.0668172E0,-5.054665E-1,4.0946573E-1,1.1618711E0,6.1654814E-2,-5.5127347E-1,8.6727744E-1,1.0229237E-2,1.0838796E0,-2.3147468E-3,6.0602367E-2,-2.7276013E-2,4.2464506E-2,-5.8301246E-1,6.431431E-1,1.1106673E-2,4.951679E-2,-4.0978268E-1,7.341453E-1,5.85047E-2,4.84815E-3,-6.1608636E-1,4.4443205E-1,4.3767963E-2,5.194881E-3,-3.3466488E-2,5.0685424E-1,1.0270493E0,-2.3845123E-2,-3.170057E-2,3.9532885E-2,4.890805E-2,-2.2423837E-2,-2.0170853E-2,4.634378E-2,5.5515E-2,1.140727E-2],"categories":[],"categories_nodes":[],"categories_segments":[],"categories_sizes":[],"default_left":[0,0,0,0,0,0,0,0,0,0,0,0,0,0,0,0,0,0,0,0,0,0,0,0,0,0,0,0,0,0,0,0,0,0,0,0,0,0,0],"id":10,"left_children":[1,3,5,7,9,11,13,15,17,19,21,-1,-1,-1,-1,23,25,-1,-1,27,29,-1,-1,31,33,-1,-1,-1,35,37,-1,-1,-1,-1,-1,-1,-1,-1,-1],"loss_changes":[8.433419E1,3.0296711E1,5.4652786E0,1.0519863E1,1.2637364E1,3.2622528E0,3.3627114E0,6.256569E0,2.2026062E-1,9.579891E0,1.3720417E0,0E0,0E0,0E0,0E0,5.4273605E0,4.7148323E-1,0E0,0E0,5.086633E0,4.5915613E0,0E0,0E0,4.216751E0,2.9695573E0,0E0,0E0,0E0,2.275032E0,3.8706875E-1,0E0,0E0,0E0,0E0,0E0,0E0,0E0,0E0,0E0],"parents":[2147483647,0,0,1,1,2,2,3,3,4,4,5,5,6,6,7,7,8,8,9,9,10,10,15,15,16,16,19,19,20,20,23,23,24,24,28,28,29,29],"right_children":[2,4,6,8,10,12,14,16,18,20,22,-1,-1,-1,-1,24,26,-1,-1,28,30,-1,-1,32,34,-1,-1,-1,36,38,-1,-1,-1,-1,-1,-1,-1,-1,-1],"split_conditions":[2.2063346E0,7.0344883E-1,1.0390842E-3,8.797396E-1,1.4186442E0,9.082737E-4,2.1433456E-1,8.537134E-1,5.7283713E-5,3.4199793E-2,3.240871E-1,-2.3147468E-3,6.0602367E-2,-2.7276013E-2,4.2464506E-2,2.6770234E-1,7.366718E-2,1.1106673E-2,4.951679E-2,1.4036904E-1,4.0706092E-1,5.85047E-2,4.84815E-3,6.295577E-1,4.557068E-2,4.3767963E-2,5.194881E-3,-3.3466488E-2,1.4226923E-3,1.5877271E-2,-2.3845123E-2,-3.170057E-2,3.9532885E-2,4.890805E-2,-2.2423837E-2,-2.0170853E-2,4.634378E-2,5.5515E-2,1.140727E-2],"split_indices":[817,1080,1544,398,1810,1595,30,1440,9,321,407,0,0,0,0,1152,33,0,0,1988,1920,0,0,673,189,0,0,0,21,16,0,0,0,0,0,0,0,0,0],"split_type":[0,0,0,0,0,0,0,0,0,0,0,0,0,0,0,0,0,0,0,0,0,0,0,0,0,0,0,0,0,0,0,0,0,0,0,0,0,0,0],"sum_hessian":[2.6162134E2,2.0467033E2,5.6951004E1,1.5869383E2,4.59765E1,5.188825E1,5.062755E0,1.5414847E2,4.545354E0,2.9517832E1,1.6458668E1,2.072122E0,4.9816128E1,3.0324693E0,2.0302856E0,1.5065698E2,3.4914894E0,1.1774702E0,3.3678837E0,1.8954485E1,1.0563347E1,1.4965697E1,1.492971E0,1.4634639E2,4.31059E0,2.0048387E0,1.4866507E0,1.4982085E1,3.9724007E0,8.628412E0,1.9349343E0,1.4504749E2,1.2989151E0,2.6381688E0,1.6724211E0,1.2667118E0,2.705689E0,7.461137E0,1.1672758E0],"tree_param":{"num_deleted":"0","num_feature":"2048","num_nodes":"39","size_leaf_vector":"1"}},{"base_weights":[1.4828076E-4,-5.5706847E-1,6.613133E-1,5.0830513E-1,-6.568945E-1,-1.0860007E-1,1.0318178E0,9.3471766E-1,-2.763015E-2,1.6561525E-2,-6.891062E-1,-4.097981E-1,7.854355E-1,1.0996158E0,-2.7258439E-2,-1.8933182E-5,5.527404E-2,4.644267E-2,-2.8387038E-2,-3.5319816E-2,1.0608926E-1,2.0661849E-1,-3.4042805E-2,-2.3794482E-2,5.5544574E-2,1.1743696E0,3.6034134E-1,3.462195E-2,-2.119206E-2,-2.946105E-2,8.8213545E-1,6.038928E-2,1.3439557E-1,-3.5483792E-1,5.0825965E-2,5.212301E-2,5.8695967E-3,-2.0784361E-2,3.3293113E-2,6.152233E-3,-2.666162E-2],"categories":[],"categories_nodes":[],"categories_segments":[],"categories_sizes":[],"default_left":[0,0,0,0,0,0,0,0,0,0,0,0,0,0,0,0,0,0,0,0,0,0,0,0,0,0,0,0,0,0,0,0,0,0,0,0,0,0,0,0,0],"id":11,"left_children":[1,3,5,7,9,11,13,15,-1,17,19,21,23,25,-1,-1,-1,-1,-1,-1,27,29,-1,-1,-1,31,33,-1,-1,-1,35,-1,37,39,-1,-1,-1,-1,-1,-1,-1],"loss_changes":[9.713427E1,1.5550274E1,3.4508556E1,6.3167567E0,2.8587341E0,1.1114606E1,9.313309E0,1.5201101E0,0E0,4.2416162E0,1.7974968E0,5.2596145E0,4.8155413E0,3.913536E0,0E0,0E0,0E0,0E0,0E0,0E0,1.3920753E0,5.9627156E0,0E0,0E0,0E0,2.2989578E0,4.4195504E0,0E0,0E0,0E0,5.981455E-1,0E0,1.2503347E0,4.816137E-1,0E0,0E0,0E0,0E0,0E0,0E0,0E0],"parents":[2147483647,0,0,1,1,2,2,3,3,4,4,5,5,6,6,7,7,9,9,10,10,11,11,12,12,13,13,20,20,21,21,25,25,26,26,30,30,32,32,33,33],"right_children":[2,4,6,8,10,12,14,16,-1,18,20,22,24,26,-1,-1,-1,-1,-1,-1,28,30,-1,-1,-1,32,34,-1,-1,-1,36,-1,38,40,-1,-1,-1,-1,-1,-1,-1],"split_conditions":[5.246482E-1,9.398011E-2,3.1759064E0,8.990247E-2,2.0848917E-2,3.6532865E0,2.1014166E0,6.050893E-4,-2.763015E-2,1.5029737E-1,9.548807E-1,8.185572E-3,1.18735366E-1,7.2120434E-1,-2.7258439E-2,-1.8933182E-5,5.527404E-2,4.644267E-2,-2.8387038E-2,-3.5319816E-2,8.136399E-5,1.6559784E-1,-3.4042805E-2,-2.3794482E-2,5.5544574E-2,2.4229813E-1,1.4064918E-1,3.462195E-2,-2.119206E-2,-2.946105E-2,8.0838494E-5,6.038928E-2,5.7367404E-4,4.549635E-2,5.0825965E-2,5.212301E-2,5.8695967E-3,-2.0784361E-2,3.3293113E-2,6.152233E-3,-2.666162E-2],"split_indices":[1905,793,564,1821,1325,1905,1039,132,0,62,319,174,806,1209,0,0,0,0,0,0,0,703,0,0,0,1025,1045,0,0,0,24,0,12,173,0,0,0,0,0,0,0],"split_type":[0,0,0,0,0,0,0,0,0,0,0,0,0,0,0,0,0,0,0,0,0,0,0,0,0,0,0,0,0,0,0,0,0,0,0,0,0,0,0,0,0],"sum_hessian":[2.6165656E2,1.4207555E2,1.19581E2,1.1821458E1,1.3025409E2,3.9079716E1,8.050129E1,8.517108E0,3.3043497E0,5.9679008E0,1.2428618E2,2.9636795E1,9.44292E0,7.747326E1,3.0280266E0,1.4692575E0,7.0478506E0,2.0997722E0,3.8681283E0,1.217506E2,2.5355787E0,9.124464E0,2.0512331E1,1.8419812E0,7.600939E0,6.982425E1,7.6490135E0,1.0581322E0,1.4774466E0,4.247799E0,4.876665E0,6.749419E1,2.3300571E0,3.8796995E0,3.769314E0,3.7312725E0,1.1453928E0,1.2520251E0,1.0780319E0,1.1389501E0,2.7407494E0],"tree_param":{"num_deleted":"0","num_feature":"2048","num_nodes":"41","size_leaf_vector":"1"}},{"base_weights":[-1.817432E-3,-5.798574E-1,7.311388E-1,7.1328394E-2,-6.606457E-1,9.7922415E-1,-2.2481622E-1,-4.6302E-1,9.1641587E-1,1.4359301E-1,-6.755315E-1,1.068061E0,-3.0390063E-1,-5.916739E-1,6.3183963E-1,-3.1689454E-2,3.0645305E-2,5.0777227E-2,1.133507E-2,3.2479625E-2,-1.9334933E-2,-6.8567914E-1,-8.87073E-2,1.1053821E0,-2.2690257E-2,-2.9300436E-2,3.261983E-2,-3.3173684E-2,1.1331594E-2,5.027336E-2,-2.2823429E-2,-6.9090134E-1,-6.266938E-3,1.2622631E-2,-1.9205844E-2,1.132194E0,-1.2628634E-3,-3.4808107E-2,-6.5621384E-3,5.7752997E-2,-7.0062466E-3],"categories":[],"categories_nodes":[],"categories_segments":[],"categories_sizes":[],"default_left":[0,0,0,0,0,0,0,0,0,0,0,0,0,0,0,0,0,0,0,0,0,0,0,0,0,0,0,0,0,0,0,0,0,0,0,0,0,0,0,0,0],"id":12,"left_children":[1,3,5,7,9,11,13,15,17,19,21,23,25,27,29,-1,-1,-1,-1,-1,-1,31,33,35,-1,-1,-1,-1,-1,-1,-1,37,-1,-1,-1,39,-1,-1,-1,-1,-1],"loss_changes":[1.1095409E2,7.74963E0,2.7604748E1,8.129109E0,1.6575165E0,1.0796112E1,8.106513E0,2.4310696E0,2.4460745E-1,1.1081088E0,7.0233536E-1,5.3940506E0,2.1970818E0,1.192894E0,3.655489E0,0E0,0E0,0E0,0E0,0E0,0E0,2.816124E-1,4.3228E-1,2.5861435E0,0E0,0E0,0E0,0E0,0E0,0E0,0E0,2.7502823E-1,0E0,0E0,0E0,2.560112E0,0E0,0E0,0E0,0E0,0E0],"parents":[2147483647,0,0,1,1,2,2,3,3,4,4,5,5,6,6,7,7,8,8,9,9,10,10,11,11,12,12,13,13,14,14,21,21,22,22,23,23,31,31,35,35],"right_children":[2,4,6,8,10,12,14,16,18,20,22,24,26,28,30,-1,-1,-1,-1,-1,-1,32,34,36,-1,-1,-1,-1,-1,-1,-1,38,-1,-1,-1,40,-1,-1,-1,-1,-1],"split_conditions":[5.8701735E0,1.1079469E-1,2.3051782E-1,4.293974E-2,2.5062274E-2,8.866356E-1,1.6802679E0,8.292785E-3,6.773137E-1,8.166141E-2,1.1487233E-1,1.7117798E0,5.653685E-1,9.876273E-2,3.3638213E-2,-3.1689454E-2,3.0645305E-2,5.0777227E-2,1.133507E-2,3.2479625E-2,-1.9334933E-2,6.4776975E-1,1.127874E-1,1.0999218E0,-2.2690257E-2,-2.9300436E-2,3.261983E-2,-3.3173684E-2,1.1331594E-2,5.027336E-2,-2.2823429E-2,4.280496E-2,-6.266938E-3,1.2622631E-2,-1.9205844E-2,2.8883487E-1,-1.2628634E-3,-3.4808107E-2,-6.5621384E-3,5.7752997E-2,-7.0062466E-3],"split_indices":[1939,1605,1595,1541,787,142,1074,1268,2,1,1839,1896,87,917,1557,0,0,0,0,0,0,777,1,380,0,0,0,0,0,0,0,2010,0,0,0,357,0,0,0,0,0],"split_type":[0,0,0,0,0,0,0,0,0,0,0,0,0,0,0,0,0,0,0,0,0,0,0,0,0,0,0,0,0,0,0,0,0,0,0,0,0,0,0,0,0],"sum_hessian":[2.598824E2,1.454127E2,1.1446967E2,1.6062187E1,1.2935052E2,9.0864555E1,2.3605116E1,1.0117194E1,5.944993E0,2.1935334E0,1.2715699E2,8.513767E1,5.726878E0,1.6743944E1,6.8611717E0,9.086014E0,1.0311797E0,4.784877E0,1.1601158E0,1.0073535E0,1.1861799E0,1.2482992E2,2.3270726E0,8.336691E1,1.7707593E0,4.7213025E0,1.0055758E0,1.5567254E1,1.1766906E0,5.1643248E0,1.6968474E0,1.2344642E2,1.3834962E0,1.1473948E0,1.1796778E0,8.143441E1,1.9325095E0,1.22055214E2,1.3912078E0,8.008725E1,1.3471566E0],"tree_param":{"num_deleted":"0","num_feature":"2048","num_nodes":"41","size_leaf_vector":"1"}},{"base_weights":[1.8213831E-3,-2.9067832E-1,1.0128124E0,-4.941291E-1,3.9470002E-1,1.0648936E0,-2.2538861E-2,-5.39642E-1,8.306298E-1,-8.905821E-3,9.995085E-1,1.108215E0,-2.7697706E-3,-5.9403336E-1,1.7317483E-1,4.7495E-2,1.0479107E-2,-2.8889254E-1,5.0434258E-2,5.452865E-2,1.9363443E-3,5.702976E-2,2.1195104E-3,-6.754449E-1,-1.4879334E-1,-2.9136792E-2,8.11222E-1,-5.2996373E-1,5.673308E-1,-3.4891155E-2,1.7613743E-2,-2.875026E-2,3.2631014E-2,5.4499324E-2,-1.7878404E-2,-3.3217404E-2,2.3155922E-2,-1.936589E-2,4.581354E-2],"categories":[],"categories_nodes":[],"categories_segments":[],"categories_sizes":[],"default_left":[0,0,0,0,0,0,0,0,0,0,0,0,0,0,0,0,0,0,0,0,0,0,0,0,0,0,0,0,0,0,0,0,0,0,0,0,0,0,0],"id":13,"left_children":[1,3,5,7,9,11,-1,13,15,17,19,21,-1,23,25,-1,-1,27,-1,-1,-1,-1,-1,29,31,-1,33,35,37,-1,-1,-1,-1,-1,-1,-1,-1,-1,-1],"loss_changes":[7.73716E1,2.8492544E1,4.955349E0,9.910011E0,1.148361E1,2.827324E0,0E0,6.0085754E0,2.1617675E-1,8.606392E0,1.6046448E0,1.8469391E0,0E0,5.037571E0,6.0545583E0,0E0,0E0,5.185266E0,0E0,0E0,0E0,0E0,0E0,2.995388E0,8.297873E0,0E0,2.5707374E0,2.8409762E0,2.247636E0,0E0,0E0,0E0,0E0,0E0,0E0,0E0,0E0,0E0,0E0],"parents":[2147483647,0,0,1,1,2,2,3,3,4,4,5,5,7,7,8,8,9,9,10,10,11,11,13,13,14,14,17,17,23,23,24,24,26,26,27,27,28,28],"right_children":[2,4,6,8,10,12,-1,14,16,18,20,22,-1,24,26,-1,-1,28,-1,-1,-1,-1,-1,30,32,-1,34,36,38,-1,-1,-1,-1,-1,-1,-1,-1,-1,-1],"split_conditions":[2.2063346E0,7.0344883E-1,1.7133627E0,8.797396E-1,2.5170734E-2,1.106225E0,-2.2538861E-2,3.8154928E-3,9.3530916E-2,1.0346391E0,2.2093136E0,1.9343283E0,-2.7697706E-3,4.0488887E-1,1.1970901E-1,4.7495E-2,1.0479107E-2,5.3162587E-1,5.0434258E-2,5.452865E-2,1.9363443E-3,5.702976E-2,2.1195104E-3,2.6770234E-1,7.099227E-3,-2.9136792E-2,8.1261545E-2,4.88906E-3,6.2478278E-2,-3.4891155E-2,1.7613743E-2,-2.875026E-2,3.2631014E-2,5.4499324E-2,-1.7878404E-2,-3.3217404E-2,2.3155922E-2,-1.936589E-2,4.581354E-2],"split_indices":[817,1080,543,398,1973,412,0,880,21,30,195,647,0,1117,1569,0,0,1405,0,0,0,0,0,1152,1214,0,4,1923,85,0,0,0,0,0,0,0,0,0,0],"split_type":[0,0,0,0,0,0,0,0,0,0,0,0,0,0,0,0,0,0,0,0,0,0,0,0,0,0,0,0,0,0,0,0,0,0,0,0,0,0,0],"sum_hessian":[2.5964725E2,2.0193573E2,5.7711525E1,1.5592831E2,4.6007412E1,5.59915E1,1.7200248E0,1.513222E2,4.606115E0,2.8184422E1,1.782299E1,5.3917305E1,2.0741956E0,1.4074901E2,1.0573195E1,3.419835E0,1.1862795E0,2.266447E1,5.5199513E0,1.6156557E1,1.6664336E0,5.2259487E1,1.6578184E0,1.1855444E2,2.2194563E1,4.879279E0,5.693917E0,1.7982508E1,4.681962E0,1.1634215E2,2.2122986E0,1.4673395E1,7.521168E0,4.6518435E0,1.0420734E0,1.6130716E1,1.8517921E0,1.2238115E0,3.4581506E0],"tree_param":{"num_deleted":"0","num_feature":"2048","num_nodes":"39","size_leaf_vector":"1"}},{"base_weights":[-2.337092E-6,-5.460186E-1,6.3153577E-1,4.883761E-1,-6.45422E-1,-1.0672033E-1,9.796774E-1,8.92297E-1,-2.7142167E-2,1.9599935E-2,-6.7775244E-1,-4.018623E-1,7.5052434E-1,1.0434116E0,-2.6900282E-2,5.275179E-2,-3.090256E-4,4.471692E-2,-2.7861133E-2,-3.4756612E-2,1.06167465E-1,1.9693701E-1,-3.3529297E-2,-2.3417508E-2,5.291013E-2,1.0909678E0,7.719145E-2,3.3587478E-2,-2.077878E-2,-2.9065201E-2,8.4237236E-1,1.1198779E0,-1.9467033E-2,-2.5013033E-2,3.646221E-2,5.4037496E-3,4.981154E-2,5.705564E-2,1.0782651E-3],"categories":[],"categories_nodes":[],"categories_segments":[],"categories_sizes":[],"default_left":[0,0,0,0,0,0,0,0,0,0,0,0,0,0,0,0,0,0,0,0,0,0,0,0,0,0,0,0,0,0,0,0,0,0,0,0,0,0,0],"id":14,"left_children":[1,3,5,7,9,11,13,15,-1,17,19,21,23,25,-1,-1,-1,-1,-1,-1,27,29,-1,-1,-1,31,33,-1,-1,-1,35,37,-1,-1,-1,-1,-1,-1,-1],"loss_changes":[9.022647E1,1.47441635E1,3.1287445E1,5.8460946E0,2.7751617E0,1.0366617E1,8.545776E0,1.4142456E0,0E0,3.9936805E0,1.743187E0,4.998674E0,4.4472995E0,3.5714493E0,0E0,0E0,0E0,0E0,0E0,0E0,1.3193812E0,5.583726E0,0E0,0E0,0E0,3.6778107E0,2.1752427E0,0E0,0E0,0E0,5.647769E-1,1.7142334E0,0E0,0E0,0E0,0E0,0E0,0E0,0E0],"parents":[2147483647,0,0,1,1,2,2,3,3,4,4,5,5,6,6,7,7,9,9,10,10,11,11,12,12,13,13,20,20,21,21,25,25,26,26,30,30,31,31],"right_children":[2,4,6,8,10,12,14,16,-1,18,20,22,24,26,-1,-1,-1,-1,-1,-1,28,30,-1,-1,-1,32,34,-1,-1,-1,36,38,-1,-1,-1,-1,-1,-1,-1],"split_conditions":[5.246482E-1,9.398011E-2,3.1759064E0,8.990247E-2,2.0848917E-2,3.6532865E0,2.1014166E0,2.3279226E-1,-2.7142167E-2,1.5029737E-1,9.548807E-1,8.185572E-3,1.18735366E-1,1.9050448E-1,-2.6900282E-2,5.275179E-2,-3.090256E-4,4.471692E-2,-2.7861133E-2,-3.4756612E-2,8.136399E-5,1.6559784E-1,-3.3529297E-2,-2.3417508E-2,5.291013E-2,5.750957E-2,1.5352454E-5,3.3587478E-2,-2.077878E-2,-2.9065201E-2,1.3352177E-1,5.210281E-1,-1.9467033E-2,-2.5013033E-2,3.646221E-2,5.4037496E-3,4.981154E-2,5.705564E-2,1.0782651E-3],"split_indices":[1905,793,564,1821,1325,1905,1039,151,0,62,319,174,806,261,0,0,0,0,0,0,0,703,0,0,0,1488,7,0,0,0,27,1821,0,0,0,0,0,0,0],"split_type":[0,0,0,0,0,0,0,0,0,0,0,0,0,0,0,0,0,0,0,0,0,0,0,0,0,0,0,0,0,0,0,0,0,0,0,0,0,0,0],"sum_hessian":[2.5965488E2,1.39329E2,1.20325874E2,1.1872308E1,1.2745668E2,3.8781254E1,8.1544624E1,8.627642E0,3.244666E0,5.927369E0,1.2152931E2,2.9244009E1,9.537244E0,7.855811E1,2.9865074E0,7.157056E0,1.4705863E0,2.1366823E0,3.7906868E0,1.190042E2,2.5251064E0,9.141365E0,2.0102644E1,1.8169899E0,7.720254E0,7.474991E1,3.808207E0,1.0736902E0,1.4514163E0,4.189359E0,4.9520063E0,7.355684E1,1.1930678E0,2.1430936E0,1.6651134E0,1.1527722E0,3.799234E0,7.212343E1,1.4334083E0],"tree_param":{"num_deleted":"0","num_feature":"2048","num_nodes":"39","size_leaf_vector":"1"}},{"base_weights":[-2.011366E-3,-5.690183E-1,6.9883496E-1,7.192497E-2,-6.4971405E-1,9.324693E-1,-2.1984883E-1,-4.526105E-1,8.79013E-1,1.4203553E-1,-6.6467214E-1,1.016028E0,-2.9810148E-1,-5.815307E-1,6.0582674E-1,-3.1144923E-2,2.9655669E-2,4.876965E-2,1.0668817E-2,3.1565495E-2,-1.8972281E-2,-6.749114E-1,-8.3397105E-2,1.0510658E0,-2.2264564E-2,-2.8886605E-2,3.1536695E-2,-3.2776352E-2,1.0684882E-2,4.8078652E-2,-2.2464527E-2,-6.8019056E-1,-5.9042946E-3,1.2505396E-2,-1.8831823E-2,1.0764045E0,-1.3414678E-3,-3.427359E-2,-6.4053284E-3,5.4900963E-2,-6.9460846E-3],"categories":[],"categories_nodes":[],"categories_segments":[],"categories_sizes":[],"default_left":[0,0,0,0,0,0,0,0,0,0,0,0,0,0,0,0,0,0,0,0,0,0,0,0,0,0,0,0,0,0,0,0,0,0,0,0,0,0,0,0,0],"id":15,"left_children":[1,3,5,7,9,11,13,15,17,19,21,23,25,27,29,-1,-1,-1,-1,-1,-1,31,33,35,-1,-1,-1,-1,-1,-1,-1,37,-1,-1,-1,39,-1,-1,-1,-1,-1],"loss_changes":[1.0306042E2,7.4615173E0,2.509974E1,7.565642E0,1.6035576E0,9.830666E0,7.6166835E0,2.3143823E0,2.415452E-1,1.0526366E0,6.891327E-1,4.9223175E0,2.0954869E0,1.1654959E0,3.3971663E0,0E0,0E0,0E0,0E0,0E0,0E0,2.8105164E-1,4.1780457E-1,2.3574219E0,0E0,0E0,0E0,0E0,0E0,0E0,0E0,2.6664352E-1,0E0,0E0,0E0,2.341339E0,0E0,0E0,0E0,0E0,0E0],"parents":[2147483647,0,0,1,1,2,2,3,3,4,4,5,5,6,6,7,7,8,8,9,9,10,10,11,11,12,12,13,13,14,14,21,21,22,22,23,23,31,31,35,35],"right_children":[2,4,6,8,10,12,14,16,18,20,22,24,26,28,30,-1,-1,-1,-1,-1,-1,32,34,36,-1,-1,-1,-1,-1,-1,-1,38,-1,-1,-1,40,-1,-1,-1,-1,-1],"split_conditions":[5.8701735E0,1.1079469E-1,2.3051782E-1,4.293974E-2,2.5062274E-2,8.866356E-1,1.6802679E0,8.292785E-3,1.7465815E-2,8.166141E-2,1.1487233E-1,1.7117798E0,5.653685E-1,2.8770797E-5,3.3638213E-2,-3.1144923E-2,2.9655669E-2,4.876965E-2,1.0668817E-2,3.1565495E-2,-1.8972281E-2,6.480161E-1,1.127874E-1,1.0999218E0,-2.2264564E-2,-2.8886605E-2,3.1536695E-2,-3.2776352E-2,1.0684882E-2,4.8078652E-2,-2.2464527E-2,4.280496E-2,-5.9042946E-3,1.2505396E-2,-1.8831823E-2,2.8883487E-1,-1.3414678E-3,-3.427359E-2,-6.4053284E-3,5.4900963E-2,-6.9460846E-3],"split_indices":[1939,1605,1595,1541,787,142,1074,1268,18,1,1839,1896,87,1323,1557,0,0,0,0,0,0,1350,1,380,0,0,0,0,0,0,0,2010,0,0,0,357,0,0,0,0,0],"split_type":[0,0,0,0,0,0,0,0,0,0,0,0,0,0,0,0,0,0,0,0,0,0,0,0,0,0,0,0,0,0,0,0,0,0,0,0,0,0,0,0,0],"sum_hessian":[2.57346E2,1.423602E2,1.14985825E2,1.5931273E1,1.26428925E2,9.16603E1,2.3325521E1,9.922037E0,6.0092363E0,2.1867428E0,1.2424218E2,8.599535E1,5.6649466E0,1.6425938E1,6.899585E0,8.880289E0,1.0417482E0,4.842692E0,1.1665441E0,1.0195506E0,1.1671921E0,1.2193323E2,2.308951E0,8.4255905E1,1.7394462E0,4.644654E0,1.0202926E0,1.5188332E1,1.2376052E0,5.226172E0,1.6734128E0,1.2056858E2,1.3646481E0,1.1491235E0,1.1598275E0,8.2322105E1,1.9338028E0,1.1918684E2,1.3817425E0,8.097841E1,1.3436987E0],"tree_param":{"num_deleted":"0","num_feature":"2048","num_nodes":"41","size_leaf_vector":"1"}},{"base_weights":[2.1845E-3,-2.8295907E-1,9.64306E-1,-4.8354262E-1,3.8149947E-1,1.0132127E0,-2.208968E-2,-5.287783E-1,7.969954E-1,1.0277887E-2,9.8456824E-1,1.0538542E0,-2.6772106E-3,-5.8213085E-1,1.7946889E-1,4.5532458E-2,1.0075296E-2,-3.9255044E-1,6.748727E-1,5.3141564E-2,3.9083012E-3,1.0846938E0,1.656802E-3,-6.086797E-1,3.3291254E-2,-2.9131982E-2,4.5472573E-2,-3.2384228E-2,4.6641544E-1,9.3878454E-1,-2.307759E-2,5.475043E-2,1.3682959E-2,-3.1376008E-2,3.6997654E-2,-1.9413872E-2,4.229423E-2,1.0522853E-2,5.0631326E-2],"categories":[],"categories_nodes":[],"categories_segments":[],"categories_sizes":[],"default_left":[0,0,0,0,0,0,0,0,0,0,0,0,0,0,0,0,0,0,0,0,0,0,0,0,0,0,0,0,0,0,0,0,0,0,0,0,0,0,0],"id":16,"left_children":[1,3,5,7,9,11,-1,13,15,17,19,21,-1,23,25,-1,-1,27,29,-1,-1,31,-1,33,-1,-1,-1,-1,35,37,-1,-1,-1,-1,-1,-1,-1,-1,-1],"loss_changes":[7.11149E1,2.6835522E1,4.522869E0,9.344223E0,1.0495306E1,2.5524673E0,0E0,5.74918E0,1.9920301E-1,8.31169E0,1.184515E0,1.7113571E0,0E0,5.01569E0,6.776935E0,0E0,0E0,4.541831E0,3.94554E0,0E0,0E0,1.508255E-1,0E0,3.9396973E0,0E0,0E0,0E0,0E0,1.9538856E0,3.15732E-1,0E0,0E0,0E0,0E0,0E0,0E0,0E0,0E0,0E0],"parents":[2147483647,0,0,1,1,2,2,3,3,4,4,5,5,7,7,8,8,9,9,10,10,11,11,13,13,14,14,17,17,18,18,21,21,23,23,28,28,29,29],"right_children":[2,4,6,8,10,12,-1,14,16,18,20,22,-1,24,26,-1,-1,28,30,-1,-1,32,-1,34,-1,-1,-1,-1,36,38,-1,-1,-1,-1,-1,-1,-1,-1,-1],"split_conditions":[2.2063346E0,7.0344883E-1,1.7133627E0,8.797396E-1,1.4186442E0,1.106225E0,-2.208968E-2,3.1978545E-1,9.707648E-2,3.4199793E-2,1.1729633E-4,1.9578339E0,-2.6772106E-3,8.537134E-1,6.0469553E-2,4.5532458E-2,1.0075296E-2,1.4036904E-1,9.506549E-3,5.3141564E-2,3.9083012E-3,7.007948E-2,1.656802E-3,7.941065E-2,3.3291254E-2,-2.9131982E-2,4.5472573E-2,-3.2384228E-2,1.4226923E-3,3.731914E-2,-2.307759E-2,5.475043E-2,1.3682959E-2,-3.1376008E-2,3.6997654E-2,-1.9413872E-2,4.229423E-2,1.0522853E-2,5.0631326E-2],"split_indices":[817,1080,543,398,1810,412,0,632,23,321,657,1469,0,1440,1286,0,0,1988,1658,0,0,118,0,465,0,0,0,0,21,235,0,0,0,0,0,0,0,0,0],"split_type":[0,0,0,0,0,0,0,0,0,0,0,0,0,0,0,0,0,0,0,0,0,0,0,0,0,0,0,0,0,0,0,0,0,0,0,0,0,0,0],"sum_hessian":[2.5722458E2,1.9896368E2,5.826089E1,1.5303769E2,4.5926003E1,5.657261E1,1.6882832E0,1.4838304E2,4.6546435E0,2.9056927E1,1.6869074E1,5.4508045E1,2.0645616E0,1.3815392E2,1.0229124E1,3.4642248E0,1.1904185E0,1.834617E1,1.0710756E1,1.5369424E1,1.4996495E0,5.2848625E1,1.6594213E0,1.3577766E2,2.3762565E0,5.1031904E0,5.1259336E0,1.43344555E1,4.011716E0,8.83331E0,1.8774455E0,5.183919E1,1.0094336E0,1.3443431E2,1.343353E0,1.2263498E0,2.785366E0,1.1675448E0,7.665766E0],"tree_param":{"num_deleted":"0","num_feature":"2048","num_nodes":"39","size_leaf_vector":"1"}},{"base_weights":[-1.7222243E-4,-5.3564113E-1,6.0487205E-1,4.6929365E-1,-6.345713E-1,-1.0406658E-1,9.329494E-1,8.527378E-1,-2.6666168E-2,2.190323E-2,-6.6701907E-1,-3.9353183E-1,7.19406E-1,9.929196E-1,-2.6447196E-2,5.0414212E-2,-5.9368205E-4,4.3130938E-2,-2.737752E-2,-3.422497E-2,1.061218E-1,1.8808877E-1,-3.300161E-2,-2.3011615E-2,5.056077E-2,1.0184093E0,-1.9286426E-2,3.2604195E-2,-2.0377958E-2,-2.8668156E-2,8.0592287E-1,1.0649109E0,7.426709E-2,4.765595E-2,5.0591757E-3,5.4240655E-2,1.0660876E-3,-2.4588201E-2,3.518778E-2],"categories":[],"categories_nodes":[],"categories_segments":[],"categories_sizes":[],"default_left":[0,0,0,0,0,0,0,0,0,0,0,0,0,0,0,0,0,0,0,0,0,0,0,0,0,0,0,0,0,0,0,0,0,0,0,0,0,0,0],"id":17,"left_children":[1,3,5,7,9,11,13,15,-1,17,19,21,23,25,-1,-1,-1,-1,-1,-1,27,29,-1,-1,-1,31,-1,-1,-1,-1,33,35,37,-1,-1,-1,-1,-1,-1],"loss_changes":[8.396345E1,1.3966339E1,2.8397205E1,5.4128103E0,2.6897812E0,9.673265E0,7.826523E0,1.3183184E0,0E0,3.7677102E0,1.6904259E0,4.742305E0,4.1140738E0,3.216339E0,0E0,0E0,0E0,0E0,0E0,0E0,1.2508199E0,5.232595E0,0E0,0E0,0E0,3.3965225E0,0E0,0E0,0E0,0E0,5.273974E-1,1.5423508E0,2.0531566E0,0E0,0E0,0E0,0E0,0E0,0E0],"parents":[2147483647,0,0,1,1,2,2,3,3,4,4,5,5,6,6,7,7,9,9,10,10,11,11,12,12,13,13,20,20,21,21,25,25,30,30,31,31,32,32],"right_children":[2,4,6,8,10,12,14,16,-1,18,20,22,24,26,-1,-1,-1,-1,-1,-1,28,30,-1,-1,-1,32,-1,-1,-1,-1,34,36,38,-1,-1,-1,-1,-1,-1],"split_conditions":[5.246482E-1,9.398011E-2,3.1759064E0,8.990247E-2,2.0848917E-2,3.6532865E0,2.1014166E0,1.5160868E-4,-2.6666168E-2,1.5029737E-1,9.548807E-1,8.185572E-3,1.18735366E-1,5.750957E-2,-2.6447196E-2,5.0414212E-2,-5.9368205E-4,4.3130938E-2,-2.737752E-2,-3.422497E-2,8.136399E-5,1.6559784E-1,-3.300161E-2,-2.3011615E-2,5.056077E-2,1.9050448E-1,-1.9286426E-2,3.2604195E-2,-2.0377958E-2,-2.8668156E-2,1.2400498E0,5.210281E-1,1.5352454E-5,4.765595E-2,5.0591757E-3,5.4240655E-2,1.0660876E-3,-2.4588201E-2,3.518778E-2],"split_indices":[1905,793,564,1821,1325,1905,1039,237,0,62,319,174,806,1488,0,0,0,0,0,0,0,703,0,0,0,261,0,0,0,0,25,1821,7,0,0,0,0,0,0],"split_type":[0,0,0,0,0,0,0,0,0,0,0,0,0,0,0,0,0,0,0,0,0,0,0,0,0,0,0,0,0,0,0,0,0,0,0,0,0,0,0],"sum_hessian":[2.571605E2,1.3648495E2,1.2067554E2,1.1896492E1,1.2458846E2,3.839374E1,8.22818E1,8.713544E0,3.1829484E0,5.883328E0,1.1870513E2,2.8794182E1,9.59956E0,7.934758E1,2.9342208E0,7.2441306E0,1.469413E0,2.1679082E0,3.7154198E0,1.1619272E2,2.512412E0,9.140288E0,1.9653893E1,1.7892706E0,7.8102894E0,7.816372E1,1.1838567E0,1.0873239E0,1.425088E0,4.126521E0,5.0137672E0,7.437274E1,3.7909815E0,3.8559484E0,1.1578188E0,7.294216E1,1.4305807E0,2.1113029E0,1.6796787E0],"tree_param":{"num_deleted":"0","num_feature":"2048","num_nodes":"39","size_leaf_vector":"1"}},{"base_weights":[-2.2452748E-3,-5.5884624E-1,6.6996276E-1,7.291902E-2,-6.394967E-1,8.9127165E-1,-2.1543753E-1,-4.4245595E-1,8.454036E-1,1.3927253E-1,-6.5451413E-1,9.7005326E-1,-2.9083458E-1,-5.7159364E-1,5.799038E-1,-3.0618945E-2,2.8741527E-2,4.696351E-2,1.0057657E-2,3.0581996E-2,-1.8617392E-2,-6.64866E-1,-7.789718E-2,1.0031172E0,-2.1834642E-2,-2.8419256E-2,3.0536145E-2,-3.22877E-2,1.0413158E-2,4.6098545E-2,-2.2260746E-2,-6.7020065E-1,-5.6291046E-3,1.2409113E-2,-1.8460488E-2,1.0274576E0,-1.6070219E-3,-3.3775892E-2,-6.225441E-3,5.2401762E-2,-6.875553E-3],"categories":[],"categories_nodes":[],"categories_segments":[],"categories_sizes":[],"default_left":[0,0,0,0,0,0,0,0,0,0,0,0,0,0,0,0,0,0,0,0,0,0,0,0,0,0,0,0,0,0,0,0,0,0,0,0,0,0,0,0,0],"id":18,"left_children":[1,3,5,7,9,11,13,15,17,19,21,23,25,27,29,-1,-1,-1,-1,-1,-1,31,33,35,-1,-1,-1,-1,-1,-1,-1,37,-1,-1,-1,39,-1,-1,-1,-1,-1],"loss_changes":[9.592335E1,7.192444E0,2.2947197E1,7.0522757E0,1.5468597E0,8.952515E0,7.137705E0,2.2047462E0,2.3778486E-1,9.961131E-1,6.7816925E-1,4.508606E0,1.995233E0,1.1234317E0,3.190549E0,0E0,0E0,0E0,0E0,0E0,0E0,2.7810287E-1,4.0410018E-1,2.1952896E0,0E0,0E0,0E0,0E0,0E0,0E0,0E0,2.6016998E-1,0E0,0E0,0E0,2.1546173E0,0E0,0E0,0E0,0E0,0E0],"parents":[2147483647,0,0,1,1,2,2,3,3,4,4,5,5,6,6,7,7,8,8,9,9,10,10,11,11,12,12,13,13,14,14,21,21,22,22,23,23,31,31,35,35],"right_children":[2,4,6,8,10,12,14,16,18,20,22,24,26,28,30,-1,-1,-1,-1,-1,-1,32,34,36,-1,-1,-1,-1,-1,-1,-1,38,-1,-1,-1,40,-1,-1,-1,-1,-1],"split_conditions":[5.8701735E0,1.1079469E-1,2.3051782E-1,4.293974E-2,2.5062274E-2,8.866356E-1,1.6802679E0,8.292785E-3,2.5053684E-2,8.166141E-2,1.1487233E-1,1.7117798E0,5.653685E-1,2.8770797E-5,3.3638213E-2,-3.0618945E-2,2.8741527E-2,4.696351E-2,1.0057657E-2,3.0581996E-2,-1.8617392E-2,6.4776975E-1,1.127874E-1,1.0999218E0,-2.1834642E-2,-2.8419256E-2,3.0536145E-2,-3.22877E-2,1.0413158E-2,4.6098545E-2,-2.2260746E-2,4.280496E-2,-5.6291046E-3,1.2409113E-2,-1.8460488E-2,2.8883487E-1,-1.6070219E-3,-3.3775892E-2,-6.225441E-3,5.2401762E-2,-6.875553E-3],"split_indices":[1939,1605,1595,1541,787,142,1074,1268,175,1,1839,1896,87,1323,1557,0,0,0,0,0,0,777,1,380,0,0,0,0,0,0,0,2010,0,0,0,357,0,0,0,0,0],"split_type":[0,0,0,0,0,0,0,0,0,0,0,0,0,0,0,0,0,0,0,0,0,0,0,0,0,0,0,0,0,0,0,0,0,0,0,0,0,0,0,0,0],"sum_hessian":[2.5437491E2,1.3924557E2,1.1512933E2,1.5774426E1,1.2347115E2,9.210159E1,2.3027744E1,9.718086E0,6.05634E0,2.1793838E0,1.2129176E2,8.651516E1,5.586429E0,1.6099613E1,6.928131E0,8.668214E0,1.0498726E0,4.8864617E0,1.1698785E0,1.0315144E0,1.1478693E0,1.1900231E2,2.2894566E0,8.4808754E1,1.706409E0,4.5540013E0,1.0324278E0,1.4858599E1,1.2410156E0,5.270172E0,1.657959E0,1.1765237E2,1.3499448E0,1.1501245E0,1.139332E0,8.286794E1,1.9408131E0,1.162814E2,1.3709615E0,8.152823E1,1.3397145E0],"tree_param":{"num_deleted":"0","num_feature":"2048","num_nodes":"41","size_leaf_vector":"1"}},{"base_weights":[2.6596135E-3,-2.7556315E-1,9.2134124E-1,-4.8518306E-1,3.3352247E-1,9.6747845E-1,-2.1995435E-2,-5.318791E-1,7.660922E-1,1.5438654E-2,9.6998876E-1,1.0220296E0,-1.5323876E-1,-5.647004E-1,5.7845145E-1,4.38106E-2,9.566165E-3,4.6140477E-2,-2.5509825E-1,5.0942052E-2,8.880135E-3,5.2346405E-2,3.623123E-3,1.0126213E-2,-2.0502971E-2,-5.993769E-1,4.1300216E-1,3.947842E-2,4.2859553E-3,4.862134E-1,-5.87426E-1,1.783805E-2,-3.137207E-2,4.445924E-2,-2.1444155E-2,4.1544132E-2,-2.318315E-2,-3.2493312E-2,1.1643463E-2],"categories":[],"categories_nodes":[],"categories_segments":[],"categories_sizes":[],"default_left":[0,0,0,0,0,0,0,0,0,0,0,0,0,0,0,0,0,0,0,0,0,0,0,0,0,0,0,0,0,0,0,0,0,0,0,0,0,0,0],"id":19,"left_children":[1,3,5,7,9,11,-1,13,15,17,19,21,23,25,27,-1,-1,-1,29,-1,-1,-1,-1,-1,-1,31,33,-1,-1,35,37,-1,-1,-1,-1,-1,-1,-1,-1],"loss_changes":[6.552552E1,2.528563E1,4.1681786E0,8.985058E0,1.0304913E1,3.6994858E0,0E0,5.5055275E0,1.9257307E-1,8.828312E0,4.7596645E-1,1.2337227E0,4.0826184E-1,4.9443893E0,4.0814245E-1,0E0,0E0,0E0,7.1217012E0,0E0,0E0,0E0,0E0,0E0,0E0,3.8249016E0,2.5210216E0,0E0,0E0,3.376394E0,1.1558642E0,0E0,0E0,0E0,0E0,0E0,0E0,0E0,0E0],"parents":[2147483647,0,0,1,1,2,2,3,3,4,4,5,5,7,7,8,8,9,9,10,10,11,11,12,12,13,13,14,14,18,18,25,25,26,26,29,29,30,30],"right_children":[2,4,6,8,10,12,-1,14,16,18,20,22,24,26,28,-1,-1,-1,30,-1,-1,-1,-1,-1,-1,32,34,-1,-1,36,38,-1,-1,-1,-1,-1,-1,-1,-1],"split_conditions":[2.2063346E0,5.813022E-1,9.39461E-1,8.797396E-1,1.9399374E0,8.612423E-3,-2.1995435E-2,8.537134E-1,4.2000596E-5,9.146632E-3,2.7981198E-1,2.3869056E-1,8.896134E-2,2.6770234E-1,7.366718E-2,4.38106E-2,9.566165E-3,4.6140477E-2,2.924037E-1,5.0942052E-2,8.880135E-3,5.2346405E-2,3.623123E-3,1.0126213E-2,-2.0502971E-2,8.071344E-3,4.557068E-2,3.947842E-2,4.2859553E-3,7.37746E-2,8.372383E-2,1.783805E-2,-3.137207E-2,4.445924E-2,-2.1444155E-2,4.1544132E-2,-2.318315E-2,-3.2493312E-2,1.1643463E-2],"split_indices":[817,1080,1796,398,1810,538,0,1440,16,1234,171,1541,2,1152,33,0,0,0,1660,0,0,0,0,0,0,830,189,0,0,2040,318,0,0,0,0,0,0,0,0],"split_type":[0,0,0,0,0,0,0,0,0,0,0,0,0,0,0,0,0,0,0,0,0,0,0,0,0,0,0,0,0,0,0,0,0,0,0,0,0,0,0],"sum_hessian":[2.5436818E2,1.9577711E2,5.859106E1,1.4580203E2,4.997509E1,5.6950108E1,1.6409544E0,1.4111087E2,4.6911535E0,3.4004883E1,1.5970207E1,5.4390682E1,2.5594234E0,1.3753671E2,3.5741649E0,3.4967525E0,1.1944009E0,7.256343E0,2.6748539E1,1.4773594E1,1.1966126E0,5.2901043E1,1.4896395E0,1.1616523E0,1.3977711E0,1.3319945E2,4.3372726E0,2.0803752E0,1.4937897E0,8.136248E0,1.8612291E1,3.4642081E0,1.2973523E2,2.7344465E0,1.6028258E0,6.0619135E0,2.0743344E0,1.7488821E1,1.1234702E0],"tree_param":{"num_deleted":"0","num_feature":"2048","num_nodes":"39","size_leaf_vector":"1"}},{"base_weights":[-4.1451794E-4,-5.2579814E-1,5.80381E-1,4.5175555E-1,-6.2428325E-1,-1.02191836E-1,8.912072E-1,8.171216E-1,-2.6212383E-2,2.4119586E-2,-6.568506E-1,-3.8571057E-1,6.8813235E-1,9.4814664E-1,-2.6092399E-2,4.8319917E-2,-8.573718E-4,4.1525178E-2,-2.6875595E-2,-3.372234E-2,1.0618845E-1,1.8045886E-1,-3.2509774E-2,-2.2857867E-2,4.8445176E-2,9.724472E-1,-1.9032061E-2,3.1671505E-2,-1.998029E-2,-2.8302813E-2,7.744012E-1,9.973312E-1,-1.8935332E-2,4.587863E-2,4.5990394E-3,5.1831126E-2,5.911063E-3],"categories":[],"categories_nodes":[],"categories_segments":[],"categories_sizes":[],"default_left":[0,0,0,0,0,0,0,0,0,0,0,0,0,0,0,0,0,0,0,0,0,0,0,0,0,0,0,0,0,0,0,0,0,0,0,0,0],"id":20,"left_children":[1,3,5,7,9,11,13,15,-1,17,19,21,23,25,-1,-1,-1,-1,-1,-1,27,29,-1,-1,-1,31,-1,-1,-1,-1,33,35,-1,-1,-1,-1,-1],"loss_changes":[7.8185555E1,1.3233952E1,2.5910446E1,5.026078E0,2.6055603E0,8.998623E0,7.230919E0,1.2335658E0,0E0,3.5395262E0,1.6399612E0,4.508639E0,3.8674335E0,2.980301E0,0E0,0E0,0E0,0E0,0E0,0E0,1.1856714E0,4.9255056E0,0E0,0E0,0E0,3.05616E0,0E0,0E0,0E0,0E0,5.0751734E-1,2.5888824E0,0E0,0E0,0E0,0E0,0E0],"parents":[2147483647,0,0,1,1,2,2,3,3,4,4,5,5,6,6,7,7,9,9,10,10,11,11,12,12,13,13,20,20,21,21,25,25,30,30,31,31],"right_children":[2,4,6,8,10,12,14,16,-1,18,20,22,24,26,-1,-1,-1,-1,-1,-1,28,30,-1,-1,-1,32,-1,-1,-1,-1,34,36,-1,-1,-1,-1,-1],"split_conditions":[5.246482E-1,9.398011E-2,3.1759064E0,8.990247E-2,2.0848917E-2,3.6532865E0,2.1014166E0,6.6281337E-4,-2.6212383E-2,1.5029737E-1,9.548807E-1,8.185572E-3,1.18735366E-1,6.906604E-1,-2.6092399E-2,4.8319917E-2,-8.573718E-4,4.1525178E-2,-2.6875595E-2,-3.372234E-2,8.136399E-5,1.6559784E-1,-3.2509774E-2,-2.2857867E-2,4.8445176E-2,5.750957E-2,-1.9032061E-2,3.1671505E-2,-1.998029E-2,-2.8302813E-2,5.519956E-1,1.9050448E-1,-1.8935332E-2,4.587863E-2,4.5990394E-3,5.1831126E-2,5.911063E-3],"split_indices":[1905,793,564,1821,1325,1905,1039,1347,0,62,319,174,806,1821,0,0,0,0,0,0,0,703,0,0,0,1488,0,0,0,0,2,261,0,0,0,0,0],"split_type":[0,0,0,0,0,0,0,0,0,0,0,0,0,0,0,0,0,0,0,0,0,0,0,0,0,0,0,0,0,0,0,0,0,0,0,0,0],"sum_hessian":[2.5422804E2,1.3353127E2,1.2069678E2,1.1893227E1,1.2163805E2,3.7975037E1,8.272174E1,8.772162E0,3.1210644E0,5.82973E0,1.1580831E2,2.832556E1,9.649475E0,7.9833824E1,2.887914E0,7.306436E0,1.4657263E0,2.196823E0,3.6329072E0,1.1331137E2,2.49694E0,9.120171E0,1.9205389E1,1.7761574E0,7.8733177E0,7.866342E1,1.1704078E0,1.0989958E0,1.3979442E0,4.0618534E0,5.058317E0,7.749802E1,1.1654034E0,3.896292E0,1.1620255E0,7.401096E1,3.48705E0],"tree_param":{"num_deleted":"0","num_feature":"2048","num_nodes":"37","size_leaf_vector":"1"}},{"base_weights":[-2.4997042E-3,-5.490434E-1,6.4349693E-1,7.425193E-2,-6.296981E-1,8.5432684E-1,-2.1207316E-1,-4.327329E-1,8.1545895E-1,1.367277E-1,-6.4478534E-1,-2.4283108E-1,9.3203837E-1,-5.622912E-1,5.5335426E-1,-3.0115655E-2,2.7872188E-2,4.5301408E-2,9.634956E-3,2.9672835E-2,-1.8274402E-2,-6.5528315E-1,-7.1341716E-2,-2.847079E-2,3.0410958E-2,9.716063E-1,-1.8698242E-1,-3.1760607E-2,1.0881967E-2,4.4296477E-2,-2.222133E-2,-6.6068274E-1,-5.328027E-3,1.2422741E-2,-1.8096145E-2,9.8563784E-1,-4.423522E-3,9.693607E-3,-2.1275451E-2,-3.330237E-2,-6.0338406E-3,5.035013E-2,1.0252579E-2],"categories":[],"categories_nodes":[],"categories_segments":[],"categories_sizes":[],"default_left":[0,0,0,0,0,0,0,0,0,0,0,0,0,0,0,0,0,0,0,0,0,0,0,0,0,0,0,0,0,0,0,0,0,0,0,0,0,0,0,0,0,0,0],"id":21,"left_children":[1,3,5,7,9,11,13,15,17,19,21,23,25,27,29,-1,-1,-1,-1,-1,-1,31,33,-1,-1,35,37,-1,-1,-1,-1,39,-1,-1,-1,41,-1,-1,-1,-1,-1,-1,-1],"loss_changes":[8.932443E1,6.936264E0,2.1096348E1,6.589493E0,1.4925041E0,8.174927E0,6.670991E0,2.1003132E0,2.2517824E-1,9.439424E-1,6.713028E-1,2.2807152E0,4.0455933E0,1.0921988E0,3.0323694E0,0E0,0E0,0E0,0E0,0E0,0E0,2.7628326E-1,3.934685E-1,0E0,0E0,1.3433151E0,4.294191E-1,0E0,0E0,0E0,0E0,2.5474548E-1,0E0,0E0,0E0,1.1848145E0,0E0,0E0,0E0,0E0,0E0,0E0,0E0],"parents":[2147483647,0,0,1,1,2,2,3,3,4,4,5,5,6,6,7,7,8,8,9,9,10,10,11,11,12,12,13,13,14,14,21,21,22,22,25,25,26,26,31,31,35,35],"right_children":[2,4,6,8,10,12,14,16,18,20,22,24,26,28,30,-1,-1,-1,-1,-1,-1,32,34,-1,-1,36,38,-1,-1,-1,-1,40,-1,-1,-1,42,-1,-1,-1,-1,-1,-1,-1],"split_conditions":[5.8701735E0,1.1079469E-1,2.3051782E-1,4.293974E-2,2.5062274E-2,4.926567E-2,1.6802679E0,8.292785E-3,1.4036012E-1,8.166141E-2,1.1487233E-1,7.9772335E-1,1.5164627E0,9.876273E-2,3.3638213E-2,-3.0115655E-2,2.7872188E-2,4.5301408E-2,9.634956E-3,2.9672835E-2,-1.8274402E-2,6.480161E-1,1.127874E-1,-2.847079E-2,3.0410958E-2,4.3408696E-2,4.891224E-4,-3.1760607E-2,1.0881967E-2,4.4296477E-2,-2.222133E-2,4.280496E-2,-5.328027E-3,1.2422741E-2,-1.8096145E-2,5.7901734E-1,-4.423522E-3,9.693607E-3,-2.1275451E-2,-3.330237E-2,-6.0338406E-3,5.035013E-2,1.0252579E-2],"split_indices":[1939,1605,1595,1541,787,234,1074,1268,650,1,1839,785,1896,917,1557,0,0,0,0,0,0,1350,1,0,0,221,1,0,0,0,0,2010,0,0,0,608,0,0,0,0,0,0,0],"split_type":[0,0,0,0,0,0,0,0,0,0,0,0,0,0,0,0,0,0,0,0,0,0,0,0,0,0,0,0,0,0,0,0,0,0,0,0,0,0,0,0,0,0,0],"sum_hessian":[2.5099614E2,1.360454E2,1.1495075E2,1.5596425E1,1.2044897E2,9.222587E1,2.272488E1,9.5086775E0,6.0877476E0,2.169641E0,1.1827933E2,5.959723E0,8.626615E1,1.5773275E1,6.951605E0,8.452749E0,1.0559278E0,4.917698E0,1.1700497E0,1.0411308E0,1.1285101E0,1.1601281E2,2.2665157E0,4.5461097E0,1.4136131E0,8.344724E1,2.818909E0,1.4594308E1,1.178967E0,5.2978516E0,1.6537529E0,1.1468029E2,1.3325232E0,1.148032E0,1.1184838E0,8.242643E1,1.0208064E0,1.1576704E0,1.6612386E0,1.133211E2,1.3591938E0,7.994818E1,2.4782534E0],"tree_param":{"num_deleted":"0","num_feature":"2048","num_nodes":"43","size_leaf_vector":"1"}},{"base_weights":[3.1736256E-3,-2.6839748E-1,8.828194E-1,-4.751346E-1,3.2373524E-1,9.2717063E-1,-2.1414837E-2,-5.215673E-1,7.37581E-1,1.5856951E-2,9.300744E-1,9.6380925E-1,-2.6594615E-3,-5.543653E-1,5.602147E-1,9.026582E-3,4.225705E-2,4.4265483E-2,-2.4898444E-1,4.887204E-2,8.255398E-3,9.9212265E-1,9.260505E-4,-5.8897895E-1,3.984733E-1,4.0702396E-3,3.823754E-2,4.683698E-1,-5.773238E-1,1.2345116E-2,5.007965E-2,-3.0411024E-2,3.600117E-2,4.2783745E-2,-2.1146184E-2,-2.2856696E-2,3.9975874E-2,-3.1996038E-2,1.1388443E-2],"categories":[],"categories_nodes":[],"categories_segments":[],"categories_sizes":[],"default_left":[0,0,0,0,0,0,0,0,0,0,0,0,0,0,0,0,0,0,0,0,0,0,0,0,0,0,0,0,0,0,0,0,0,0,0,0,0,0,0],"id":22,"left_children":[1,3,5,7,9,11,-1,13,15,17,19,21,-1,23,25,-1,-1,-1,27,-1,-1,29,-1,31,33,-1,-1,35,37,-1,-1,-1,-1,-1,-1,-1,-1,-1,-1],"loss_changes":[6.047373E1,2.3833927E1,3.8695984E0,8.481201E0,9.441366E0,2.1373978E0,0E0,5.244766E0,1.8993545E-1,8.190681E0,4.5609093E-1,1.4814568E0,0E0,4.702965E0,3.8722932E-1,0E0,0E0,0E0,6.70333E0,0E0,0E0,1.3656998E-1,0E0,3.7408257E0,2.3693492E0,0E0,0E0,3.1629653E0,1.1125631E0,0E0,0E0,0E0,0E0,0E0,0E0,0E0,0E0,0E0,0E0],"parents":[2147483647,0,0,1,1,2,2,3,3,4,4,5,5,7,7,8,8,9,9,10,10,11,11,13,13,14,14,18,18,21,21,23,23,24,24,27,27,28,28],"right_children":[2,4,6,8,10,12,-1,14,16,18,20,22,-1,24,26,-1,-1,-1,28,-1,-1,30,-1,32,34,-1,-1,36,38,-1,-1,-1,-1,-1,-1,-1,-1,-1,-1],"split_conditions":[2.2063346E0,5.813022E-1,1.7133627E0,8.797396E-1,1.9399374E0,1.106225E0,-2.1414837E-2,8.537134E-1,5.7283713E-5,9.146632E-3,1.1198208E0,1.7095138E0,-2.6594615E-3,2.6770234E-1,7.215312E-2,9.026582E-3,4.225705E-2,4.4265483E-2,2.924037E-1,4.887204E-2,8.255398E-3,3.258946E-2,9.260505E-4,1.7978846E0,4.557068E-2,4.0702396E-3,3.823754E-2,5.9283346E-2,8.372383E-2,1.2345116E-2,5.007965E-2,-3.0411024E-2,3.600117E-2,4.2783745E-2,-2.1146184E-2,-2.2856696E-2,3.9975874E-2,-3.1996038E-2,1.1388443E-2],"split_indices":[817,1080,543,398,1810,412,0,1440,9,1234,307,1841,0,1152,3,0,0,0,1660,0,0,953,0,1487,189,0,0,1652,318,0,0,0,0,0,0,0,0,0,0],"split_type":[0,0,0,0,0,0,0,0,0,0,0,0,0,0,0,0,0,0,0,0,0,0,0,0,0,0,0,0,0,0,0,0,0,0,0,0,0,0,0],"sum_hessian":[2.511566E2,1.9243994E2,5.8716675E1,1.4278543E2,4.96545E1,5.707871E1,1.6379654E0,1.3806894E2,4.7164893E0,3.361308E1,1.604142E1,5.503865E1,2.0400572E0,1.3447928E2,3.5896666E0,1.1967884E0,3.519701E0,7.3011637E0,2.6311916E1,1.4844499E1,1.1969213E0,5.3389965E1,1.6486884E0,1.3013379E2,4.3454833E0,1.492885E0,2.0967815E0,8.127817E0,1.81841E1,1.0096807E0,5.2380283E1,1.2877621E2,1.3575747E0,2.7648156E0,1.580668E0,2.0415537E0,6.0862637E0,1.7062618E1,1.1214802E0],"tree_param":{"num_deleted":"0","num_feature":"2048","num_nodes":"39","size_leaf_vector":"1"}},{"base_weights":[-6.761346E-4,-5.165967E-1,5.58344E-1,4.3576685E-1,-6.1466014E-1,-9.98728E-2,8.53734E-1,7.851143E-1,-2.5777375E-2,2.594283E-2,-6.473456E-1,-3.782925E-1,6.6262054E-1,9.0807825E-1,-2.5756983E-2,4.6443883E-2,-1.0924758E-3,4.003597E-2,-2.6399016E-2,-3.3253793E-2,1.06576264E-1,1.738051E-1,-3.2046955E-2,-2.2533964E-2,4.6603348E-2,9.312066E-1,-1.8668752E-2,3.0815734E-2,-1.9590395E-2,-2.7881235E-2,7.443859E-1,9.549245E-1,-1.8608442E-2,4.136173E-3,4.420053E-2,4.9618624E-2,5.665287E-3],"categories":[],"categories_nodes":[],"categories_segments":[],"categories_sizes":[],"default_left":[0,0,0,0,0,0,0,0,0,0,0,0,0,0,0,0,0,0,0,0,0,0,0,0,0,0,0,0,0,0,0,0,0,0,0,0,0],"id":23,"left_children":[1,3,5,7,9,11,13,15,-1,17,19,21,23,25,-1,-1,-1,-1,-1,-1,27,29,-1,-1,-1,31,-1,-1,-1,-1,33,35,-1,-1,-1,-1,-1],"loss_changes":[7.2945526E1,1.2551819E1,2.3687527E1,4.6800957E0,2.5224304E0,8.4234495E0,6.7086906E0,1.1578455E0,0E0,3.3285737E0,1.5933609E0,4.2929516E0,3.6179843E0,2.749916E0,0E0,0E0,0E0,0E0,0E0,0E0,1.1252705E0,4.6230288E0,0E0,0E0,0E0,2.8254318E0,0E0,0E0,0E0,0E0,4.8972106E-1,2.3696442E0,0E0,0E0,0E0,0E0,0E0],"parents":[2147483647,0,0,1,1,2,2,3,3,4,4,5,5,6,6,7,7,9,9,10,10,11,11,12,12,13,13,20,20,21,21,25,25,30,30,31,31],"right_children":[2,4,6,8,10,12,14,16,-1,18,20,22,24,26,-1,-1,-1,-1,-1,-1,28,30,-1,-1,-1,32,-1,-1,-1,-1,34,36,-1,-1,-1,-1,-1],"split_conditions":[5.246482E-1,9.398011E-2,3.1759064E0,8.990247E-2,2.0848917E-2,3.6532865E0,2.1014166E0,1.4148058E-1,-2.5777375E-2,1.5029737E-1,9.548807E-1,8.185572E-3,1.18735366E-1,6.906604E-1,-2.5756983E-2,4.6443883E-2,-1.0924758E-3,4.003597E-2,-2.6399016E-2,-3.3253793E-2,8.136399E-5,1.6559784E-1,-3.2046955E-2,-2.2533964E-2,4.6603348E-2,5.750957E-2,-1.8668752E-2,3.0815734E-2,-1.9590395E-2,-2.7881235E-2,3.222154E-4,1.9050448E-1,-1.8608442E-2,4.136173E-3,4.420053E-2,4.9618624E-2,5.665287E-3],"split_indices":[1905,793,564,1821,1325,1905,1039,448,0,62,319,174,806,1821,0,0,0,0,0,0,0,703,0,0,0,1488,0,0,0,0,38,261,0,0,0,0,0],"split_type":[0,0,0,0,0,0,0,0,0,0,0,0,0,0,0,0,0,0,0,0,0,0,0,0,0,0,0,0,0,0,0,0,0,0,0,0,0],"sum_hessian":[2.5092293E2,1.3053128E2,1.2039164E2,1.186436E1,1.1866692E2,3.749764E1,8.2894E1,8.805468E0,3.0588918E0,5.770818E0,1.1289611E2,2.7837004E1,9.660636E0,8.005254E1,2.8414583E0,7.3457246E0,1.4597431E0,2.2200606E0,3.5507576E0,1.1041723E2,2.4788787E0,9.08277E0,1.8754234E1,1.7514358E0,7.9091997E0,7.89018E1,1.1507424E0,1.1084995E0,1.3703792E0,3.9902978E0,5.092472E0,7.775423E1,1.1475735E0,1.1648548E0,3.9276175E0,7.427043E1,3.4837966E0],"tree_param":{"num_deleted":"0","num_feature":"2048","num_nodes":"37","size_leaf_vector":"1"}},{"base_weights":[-2.7267504E-3,-5.3975767E-1,6.194987E-1,7.567266E-2,-6.2044305E-1,8.2116383E-1,-2.0901799E-1,-4.2338088E-1,7.880762E-1,1.343081E-1,-6.3560766E-1,8.781259E-1,-2.6239423E-2,-5.5381316E-1,5.307996E-1,-2.9633135E-2,2.7051164E-2,4.3791067E-2,9.227498E-3,2.8812578E-2,-1.7936973E-2,-6.462671E-1,-6.491819E-2,9.430462E-1,-2.0275442E-3,-3.1434756E-2,1.0200745E-2,4.265995E-2,-2.2029776E-2,-6.518642E-1,-5.474644E-3,1.2434045E-2,-1.7739365E-2,9.572162E-1,-4.9998094E-3,-4.3513224E-1,3.4965243E-2,-3.2864522E-2,-5.8442424E-3,4.8373893E-2,7.2301286E-3,-2.5387734E-2,-6.5496373E-3],"categories":[],"categories_nodes":[],"categories_segments":[],"categories_sizes":[],"default_left":[0,0,0,0,0,0,0,0,0,0,0,0,0,0,0,0,0,0,0,0,0,0,0,0,0,0,0,0,0,0,0,0,0,0,0,0,0,0,0,0,0,0,0],"id":24,"left_children":[1,3,5,7,9,11,13,15,17,19,21,23,-1,25,27,-1,-1,-1,-1,-1,-1,29,31,33,35,-1,-1,-1,-1,37,-1,-1,-1,39,-1,41,-1,-1,-1,-1,-1,-1,-1],"loss_changes":[8.330034E1,6.690998E0,1.9467285E1,6.1642675E0,1.4405289E0,7.5971985E0,6.2640276E0,2.0012937E0,2.1464062E-1,8.947706E-1,6.65184E-1,5.125992E0,0E0,1.0619583E0,2.8659005E0,0E0,0E0,0E0,0E0,0E0,0E0,2.711258E-1,3.8303274E-1,1.3301086E0,2.4785357E0,0E0,0E0,0E0,0E0,2.501068E-1,0E0,0E0,0E0,5.479889E-1,0E0,4.4844627E-2,0E0,0E0,0E0,0E0,0E0,0E0,0E0],"parents":[2147483647,0,0,1,1,2,2,3,3,4,4,5,5,6,6,7,7,8,8,9,9,10,10,11,11,13,13,14,14,21,21,22,22,23,23,24,24,29,29,33,33,35,35],"right_children":[2,4,6,8,10,12,14,16,18,20,22,24,-1,26,28,-1,-1,-1,-1,-1,-1,30,32,34,36,-1,-1,-1,-1,38,-1,-1,-1,40,-1,42,-1,-1,-1,-1,-1,-1,-1],"split_conditions":[5.8701735E0,1.1079469E-1,2.3051782E-1,4.293974E-2,2.5062274E-2,9.916527E-1,1.6802679E0,8.292785E-3,2.021537E-1,8.166141E-2,1.1487233E-1,3.4722686E0,-2.6239423E-2,2.8770797E-5,3.3638213E-2,-2.9633135E-2,2.7051164E-2,4.3791067E-2,9.227498E-3,2.8812578E-2,-1.7936973E-2,2.181359E0,1.127874E-1,3.7111165E-3,1.2835222E-1,-3.1434756E-2,1.0200745E-2,4.265995E-2,-2.2029776E-2,4.280496E-2,-5.474644E-3,1.2434045E-2,-1.7739365E-2,2.1994743E-1,-4.9998094E-3,2.7154086E-2,3.4965243E-2,-3.2864522E-2,-5.8442424E-3,4.8373893E-2,7.2301286E-3,-2.5387734E-2,-6.5496373E-3],"split_indices":[1939,1605,1595,1541,787,142,1074,1268,905,1,1839,1523,0,1323,1557,0,0,0,0,0,0,1209,1,1910,179,0,0,0,0,2010,0,0,0,2004,0,73,0,0,0,0,0,0,0],"split_type":[0,0,0,0,0,0,0,0,0,0,0,0,0,0,0,0,0,0,0,0,0,0,0,0,0,0,0,0,0,0,0,0,0,0,0,0,0,0,0,0,0,0,0],"sum_hessian":[2.4728638E2,1.3280095E2,1.1448543E2,1.5399887E1,1.1740106E2,9.208126E1,2.2404167E1,9.294558E0,6.10533E0,2.1576371E0,1.1524342E2,8.867599E1,3.4052763E0,1.5453444E1,6.9507236E0,8.2346E0,1.0599566E0,4.9364576E0,1.1688725E0,1.0487947E0,1.1088424E0,1.1300035E2,2.2430716E0,8.251798E1,6.1580014E0,1.4218858E1,1.2345861E0,5.310036E0,1.6406877E0,1.11622025E2,1.3783262E0,1.1456865E0,1.0973852E0,8.1493164E1,1.0248232E0,4.0416574E0,2.116344E0,1.1027489E2,1.3471394E0,8.0288704E1,1.2044551E0,2.7221766E0,1.3194809E0],"tree_param":{"num_deleted":"0","num_feature":"2048","num_nodes":"43","size_leaf_vector":"1"}},{"base_weights":[3.723528E-3,-2.6154408E-1,8.48264E-1,-4.6543223E-1,3.1464738E-1,9.2221236E-1,2.7773354E-2,-5.116031E-1,7.112011E-1,1.6185213E-2,8.94056E-1,-2.7514566E-3,4.8045326E-2,-2.5635658E-2,3.414137E-2,-5.4438317E-1,5.429393E-1,4.080082E-2,8.556265E-3,4.2560913E-2,-2.4327679E-1,4.700262E-2,7.703346E-3,-5.789435E-1,3.8516563E-1,3.777542E-3,3.7145402E-2,4.517775E-1,-5.677234E-1,1.7810715E-2,-3.0383298E-2,4.1263606E-2,-2.0852983E-2,3.8489472E-2,-2.2499168E-2,-3.152562E-2,1.11375535E-2],"categories":[],"categories_nodes":[],"categories_segments":[],"categories_sizes":[],"default_left":[0,0,0,0,0,0,0,0,0,0,0,0,0,0,0,0,0,0,0,0,0,0,0,0,0,0,0,0,0,0,0,0,0,0,0,0,0],"id":25,"left_children":[1,3,5,7,9,11,13,15,17,19,21,-1,-1,-1,-1,23,25,-1,-1,-1,27,-1,-1,29,31,-1,-1,33,35,-1,-1,-1,-1,-1,-1,-1,-1],"loss_changes":[5.59188E1,2.2462069E1,3.5941887E0,8.008091E0,8.674445E0,2.1211395E0,2.4614487E0,4.9960747E0,1.8479967E-1,7.612674E0,4.359722E-1,0E0,0E0,0E0,0E0,4.4757195E0,3.7381065E-1,0E0,0E0,0E0,6.3126388E0,0E0,0E0,3.6554222E0,2.2316213E0,0E0,0E0,2.9569836E0,1.071176E0,0E0,0E0,0E0,0E0,0E0,0E0,0E0,0E0],"parents":[2147483647,0,0,1,1,2,2,3,3,4,4,5,5,6,6,7,7,8,8,9,9,10,10,15,15,16,16,20,20,23,23,24,24,27,27,28,28],"right_children":[2,4,6,8,10,12,14,16,18,20,22,-1,-1,-1,-1,24,26,-1,-1,-1,28,-1,-1,30,32,-1,-1,34,36,-1,-1,-1,-1,-1,-1,-1,-1],"split_conditions":[2.2063346E0,5.813022E-1,1.0390842E-3,8.797396E-1,1.9399374E0,9.082737E-4,2.1433456E-1,8.537134E-1,5.439969E-1,9.146632E-3,1.0669978E0,-2.7514566E-3,4.8045326E-2,-2.5635658E-2,3.414137E-2,2.6770234E-1,6.381273E-1,4.080082E-2,8.556265E-3,4.2560913E-2,2.924037E-1,4.700262E-2,7.703346E-3,8.071344E-3,4.557068E-2,3.777542E-3,3.7145402E-2,7.37746E-2,8.372383E-2,1.7810715E-2,-3.0383298E-2,4.1263606E-2,-2.0852983E-2,3.8489472E-2,-2.2499168E-2,-3.152562E-2,1.11375535E-2],"split_indices":[817,1080,1544,398,1810,1595,30,1440,4,1234,33,0,0,0,0,1152,2,0,0,0,1660,0,0,830,189,0,0,2040,318,0,0,0,0,0,0,0,0],"split_type":[0,0,0,0,0,0,0,0,0,0,0,0,0,0,0,0,0,0,0,0,0,0,0,0,0,0,0,0,0,0,0,0,0,0,0,0,0],"sum_hessian":[2.4761461E2,1.8895479E2,5.865982E1,1.3970998E2,4.924482E1,5.369635E1,4.9634714E0,1.3497864E2,4.731339E0,3.3180817E1,1.6064005E1,2.0290651E0,5.1667286E1,2.8386178E0,2.1248536E0,1.3137856E2,3.6000824E0,3.5344589E0,1.1968802E0,7.325209E0,2.5855606E1,1.4869392E1,1.1946137E0,1.2703269E2,4.3458595E0,1.4915904E0,2.1084921E0,8.10341E0,1.7752197E1,3.445657E0,1.23587036E2,2.7877507E0,1.5581086E0,6.09893E0,2.0044794E0,1.663334E1,1.1188569E0],"tree_param":{"num_deleted":"0","num_feature":"2048","num_nodes":"37","size_leaf_vector":"1"}},{"base_weights":[-1.0017343E-3,-5.0783116E-1,5.3792983E-1,4.2046952E-1,-6.054462E-1,-9.8169684E-2,8.199061E-1,7.554462E-1,-2.5365153E-2,2.7701568E-2,-6.382677E-1,-3.7156153E-1,6.3836133E-1,8.72004E-1,-2.5433471E-2,4.4712424E-2,-1.3109698E-3,3.8720354E-2,-2.5953144E-2,-3.2808237E-2,1.0779433E-1,1.6700576E-1,-3.161869E-2,-2.2319984E-2,4.4948228E-2,8.9419764E-1,-1.8369472E-2,3.0078918E-2,-1.9207979E-2,-2.751377E-2,7.174195E-1,9.1699886E-1,-1.834807E-2,4.269493E-2,3.7135237E-3,4.6922863E-2,-4.5205145E-3],"categories":[],"categories_nodes":[],"categories_segments":[],"categories_sizes":[],"default_left":[0,0,0,0,0,0,0,0,0,0,0,0,0,0,0,0,0,0,0,0,0,0,0,0,0,0,0,0,0,0,0,0,0,0,0,0,0],"id":26,"left_children":[1,3,5,7,9,11,13,15,-1,17,19,21,23,25,-1,-1,-1,-1,-1,-1,27,29,-1,-1,-1,31,-1,-1,-1,-1,33,35,-1,-1,-1,-1,-1],"loss_changes":[6.808975E1,1.1895561E1,2.1750374E1,4.365441E0,2.4417877E0,7.8888965E0,6.244869E0,1.0884662E0,0E0,3.1404161E0,1.5520859E0,4.0871096E0,3.413292E0,2.557129E0,0E0,0E0,0E0,0E0,0E0,0E0,1.0711045E0,4.358271E0,0E0,0E0,0E0,2.6337051E0,0E0,0E0,0E0,0E0,4.7328162E-1,1.7872925E0,0E0,0E0,0E0,0E0,0E0],"parents":[2147483647,0,0,1,1,2,2,3,3,4,4,5,5,6,6,7,7,9,9,10,10,11,11,12,12,13,13,20,20,21,21,25,25,30,30,31,31],"right_children":[2,4,6,8,10,12,14,16,-1,18,20,22,24,26,-1,-1,-1,-1,-1,-1,28,30,-1,-1,-1,32,-1,-1,-1,-1,34,36,-1,-1,-1,-1,-1],"split_conditions":[5.246482E-1,9.398011E-2,3.1759064E0,8.990247E-2,2.0848917E-2,3.6532865E0,2.1014166E0,3.235664E-1,-2.5365153E-2,1.5029737E-1,9.548807E-1,8.185572E-3,1.18735366E-1,6.906604E-1,-2.5433471E-2,4.4712424E-2,-1.3109698E-3,3.8720354E-2,-2.5953144E-2,-3.2808237E-2,8.136399E-5,1.6559784E-1,-3.161869E-2,-2.2319984E-2,4.4948228E-2,2.3207686E0,-1.8369472E-2,3.0078918E-2,-1.9207979E-2,-2.751377E-2,8.0838494E-5,2.3849407E-2,-1.834807E-2,4.269493E-2,3.7135237E-3,4.6922863E-2,-4.5205145E-3],"split_indices":[1905,793,564,1821,1325,1905,1039,895,0,62,319,174,806,1821,0,0,0,0,0,0,0,703,0,0,0,1558,0,0,0,0,24,1625,0,0,0,0,0],"split_type":[0,0,0,0,0,0,0,0,0,0,0,0,0,0,0,0,0,0,0,0,0,0,0,0,0,0,0,0,0,0,0,0,0,0,0,0,0],"sum_hessian":[2.4727928E2,1.2746479E2,1.1981448E2,1.1813478E1,1.1565131E2,3.6999832E1,8.281465E1,8.816119E0,2.9973593E0,5.7074156E0,1.099439E2,2.7345152E1,9.654681E0,8.002044E1,2.7942114E0,7.3643785E0,1.4517409E0,2.2365956E0,3.47082E0,1.0748595E2,2.457953E0,9.039206E0,1.8305946E1,1.7320545E0,7.9226265E0,7.8886345E1,1.1340892E0,1.1154842E0,1.3424687E0,3.924794E0,5.114412E0,7.7753494E1,1.1328571E0,3.9487796E0,1.1656324E0,7.619885E1,1.5546362E0],"tree_param":{"num_deleted":"0","num_feature":"2048","num_nodes":"37","size_leaf_vector":"1"}},{"base_weights":[-3.0147946E-3,-5.3088075E-1,5.973613E-1,7.68681E-2,-6.115944E-1,7.911178E-1,-2.066818E-1,-4.1445827E-1,7.624254E-1,1.3195378E-1,-6.268435E-1,8.455984E-1,-2.5792113E-2,-5.455488E-1,5.0744635E-1,-2.9172394E-2,2.6268834E-2,4.242907E-2,8.702615E-3,2.7993608E-2,-1.7605217E-2,-6.376517E-1,-6.0295355E-2,9.075105E-1,-8.281256E-4,-3.1037617E-2,1.0028023E-2,4.1142944E-2,-2.1994796E-2,-6.432152E-1,-4.7261305E-3,1.229051E-2,-1.7390022E-2,9.2148966E-1,-5.326872E-3,3.4069624E-2,-4.2847753E-1,-3.2435104E-2,-5.6604533E-3,4.657612E-2,6.6918097E-3,-2.4940683E-2,-6.530918E-3],"categories":[],"categories_nodes":[],"categories_segments":[],"categories_sizes":[],"default_left":[0,0,0,0,0,0,0,0,0,0,0,0,0,0,0,0,0,0,0,0,0,0,0,0,0,0,0,0,0,0,0,0,0,0,0,0,0,0,0,0,0,0,0],"id":27,"left_children":[1,3,5,7,9,11,13,15,17,19,21,23,-1,25,27,-1,-1,-1,-1,-1,-1,29,31,33,35,-1,-1,-1,-1,37,-1,-1,-1,39,-1,-1,41,-1,-1,-1,-1,-1,-1],"loss_changes":[7.772477E1,6.4487E0,1.803984E1,5.768737E0,1.3902168E0,7.034832E0,5.8608437E0,1.9071141E0,2.1274567E-1,8.482784E-1,6.5454483E-1,4.682686E0,0E0,1.029613E0,2.7356367E0,0E0,0E0,0E0,0E0,0E0,0E0,2.744522E-1,3.6914104E-1,1.2783432E0,2.360091E0,0E0,0E0,0E0,0E0,2.4544144E-1,0E0,0E0,0E0,5.2510834E-1,0E0,0E0,3.899467E-2,0E0,0E0,0E0,0E0,0E0,0E0],"parents":[2147483647,0,0,1,1,2,2,3,3,4,4,5,5,6,6,7,7,8,8,9,9,10,10,11,11,13,13,14,14,21,21,22,22,23,23,24,24,29,29,33,33,36,36],"right_children":[2,4,6,8,10,12,14,16,18,20,22,24,-1,26,28,-1,-1,-1,-1,-1,-1,30,32,34,36,-1,-1,-1,-1,38,-1,-1,-1,40,-1,-1,42,-1,-1,-1,-1,-1,-1],"split_conditions":[5.8701735E0,1.1079469E-1,2.3051782E-1,4.293974E-2,2.5062274E-2,9.916527E-1,1.6802679E0,8.292785E-3,1.7465815E-2,8.166141E-2,1.1487233E-1,3.4722686E0,-2.5792113E-2,1.1999331E-1,3.3638213E-2,-2.9172394E-2,2.6268834E-2,4.242907E-2,8.702615E-3,2.7993608E-2,-1.7605217E-2,6.4776975E-1,1.127874E-1,3.7111165E-3,2.13272E-2,-3.1037617E-2,1.0028023E-2,4.1142944E-2,-2.1994796E-2,4.280496E-2,-4.7261305E-3,1.229051E-2,-1.7390022E-2,1.115441E0,-5.326872E-3,3.4069624E-2,9.496979E-2,-3.2435104E-2,-5.6604533E-3,4.657612E-2,6.6918097E-3,-2.4940683E-2,-6.530918E-3],"split_indices":[1939,1605,1595,1541,787,142,1074,1268,18,1,1839,1523,0,230,1557,0,0,0,0,0,0,777,1,1910,1867,0,0,0,0,2010,0,0,0,1784,0,0,35,0,0,0,0,0,0],"split_type":[0,0,0,0,0,0,0,0,0,0,0,0,0,0,0,0,0,0,0,0,0,0,0,0,0,0,0,0,0,0,0,0,0,0,0,0,0,0,0,0,0,0,0],"sum_hessian":[2.4325127E2,1.2950389E2,1.1374737E2,1.5188299E1,1.143156E2,9.1672424E1,2.2074938E1,9.077829E0,6.1104703E0,2.1435416E0,1.1217206E2,8.8342865E1,3.3295646E0,1.5131042E1,6.9438963E0,8.015739E0,1.0620899E0,4.944232E0,1.1662381E0,1.0546156E0,1.088926E0,1.09949036E2,2.223021E0,8.225419E1,6.088674E0,1.3898197E1,1.2328446E0,5.308022E0,1.6358747E0,1.08651794E2,1.2972394E0,1.1469213E0,1.0760996E0,8.122573E1,1.0284591E0,2.1174324E0,3.9712417E0,1.0731684E2,1.334955E0,8.002377E1,1.2019581E0,2.6668358E0,1.3044058E0],"tree_param":{"num_deleted":"0","num_feature":"2048","num_nodes":"43","size_leaf_vector":"1"}},{"base_weights":[4.3461234E-3,-2.5498894E-1,8.175814E-1,-4.5617378E-1,3.064902E-1,8.5824186E-1,-2.0943196E-2,-5.02085E-1,6.866925E-1,4.818442E-1,-2.9436165E-2,9.058799E-1,-1.4839917E-1,-5.3485245E-1,5.2629936E-1,3.946304E-2,8.08605E-3,-2.9325284E-2,8.131161E-1,4.640584E-2,2.646852E-3,9.109796E-3,-1.9451348E-2,-5.6933147E-1,3.72678E-1,3.6183268E-2,3.3968377E-3,6.5975666E-1,-4.0952852E-1,8.929834E-1,-3.157217E-3,-2.9456273E-2,3.516994E-2,3.9771657E-2,-2.050588E-2,3.9537314E-2,4.6721655E-3,2.9246375E-2,-2.996144E-2,5.216224E-3,4.6821404E-2],"categories":[],"categories_nodes":[],"categories_segments":[],"categories_sizes":[],"default_left":[0,0,0,0,0,0,0,0,0,0,0,0,0,0,0,0,0,0,0,0,0,0,0,0,0,0,0,0,0,0,0,0,0,0,0,0,0,0,0,0,0],"id":28,"left_children":[1,3,5,7,9,11,-1,13,15,17,-1,19,21,23,25,-1,-1,27,29,-1,-1,-1,-1,31,33,-1,-1,35,37,39,-1,-1,-1,-1,-1,-1,-1,-1,-1,-1,-1],"loss_changes":[5.1831326E1,2.1190384E1,3.3468475E0,7.5644875E0,8.094403E0,2.9089432E0,0E0,4.7585373E0,1.8123817E-1,7.1624584E0,0E0,1.0013275E0,3.47201E-1,4.2565994E0,3.6757565E-1,0E0,0E0,4.8661222E0,1.8489819E0,0E0,0E0,0E0,0E0,3.561367E0,2.0918152E0,0E0,0E0,4.1722465E-1,2.5995448E0,7.088814E-1,0E0,0E0,0E0,0E0,0E0,0E0,0E0,0E0,0E0,0E0,0E0],"parents":[2147483647,0,0,1,1,2,2,3,3,4,4,5,5,7,7,8,8,9,9,11,11,12,12,13,13,14,14,17,17,18,18,23,23,24,24,27,27,28,28,29,29],"right_children":[2,4,6,8,10,12,-1,14,16,18,-1,20,22,24,26,-1,-1,28,30,-1,-1,-1,-1,32,34,-1,-1,36,38,40,-1,-1,-1,-1,-1,-1,-1,-1,-1,-1,-1],"split_conditions":[2.2063346E0,5.813022E-1,9.39461E-1,8.797396E-1,3.6532865E0,8.612423E-3,-2.0943196E-2,8.537134E-1,9.3530916E-2,2.9436423E-2,-2.9436165E-2,1.2162292E-3,8.896134E-2,2.6770234E-1,7.366718E-2,3.946304E-2,8.08605E-3,2.809106E-4,1.01833954E-1,4.640584E-2,2.646852E-3,9.109796E-3,-1.9451348E-2,6.295577E-1,4.557068E-2,3.6183268E-2,3.3968377E-3,1.1492748E-4,4.4937056E-1,1.6084202E-1,-3.157217E-3,-2.9456273E-2,3.516994E-2,3.9771657E-2,-2.050588E-2,3.9537314E-2,4.6721655E-3,2.9246375E-2,-2.996144E-2,5.216224E-3,4.6821404E-2],"split_indices":[817,1080,1796,398,1905,538,0,1440,21,831,0,1005,2,1152,33,0,0,736,1092,0,0,0,0,673,189,0,0,286,1220,2019,0,0,0,0,0,0,0,0,0,0,0],"split_type":[0,0,0,0,0,0,0,0,0,0,0,0,0,0,0,0,0,0,0,0,0,0,0,0,0,0,0,0,0,0,0,0,0,0,0,0,0,0,0,0,0],"sum_hessian":[2.4377356E2,1.853524E2,5.8421143E1,1.3659596E2,4.875645E1,5.6857273E1,1.5638704E0,1.3185957E2,4.73638E0,4.115649E1,7.5999584E0,5.4383728E1,2.473547E0,1.2825296E2,3.6066241E0,3.5410903E0,1.1952897E0,1.654232E1,2.461417E1,5.2916027E1,1.4676979E0,1.1442748E0,1.3292722E0,1.2391772E2,4.335235E0,2.1164837E0,1.4901406E0,5.6204743E0,1.09218445E1,2.254061E1,2.0735624E0,1.22548904E2,1.3688126E0,2.8044987E0,1.5307367E0,4.2427998E0,1.3776748E0,1.4159025E0,9.505942E0,1.3544456E0,2.1186163E1],"tree_param":{"num_deleted":"0","num_feature":"2048","num_nodes":"41","size_leaf_vector":"1"}},{"base_weights":[-1.3401835E-3,-4.9960256E-1,5.192173E-1,4.0609175E-1,-5.9677917E-1,-9.647009E-2,7.890863E-1,7.279518E-1,-2.4961544E-2,2.8659921E-2,-6.2970686E-1,-3.652559E-1,6.1692554E-1,8.392749E-1,-2.5139963E-2,4.3133773E-2,-1.5617175E-3,3.7372466E-2,-2.5510842E-2,-3.2389164E-2,1.08861856E-1,1.599245E-1,-3.1201502E-2,-2.2005387E-2,4.3429986E-2,8.6090904E-1,-1.826294E-2,2.936484E-2,-1.8833682E-2,-2.7144415E-2,6.909488E-1,9.002852E-1,5.0756752E-2,3.3274689E-3,4.120445E-2,4.5819703E-2,1.195636E-3,-2.391757E-2,3.1499505E-2],"categories":[],"categories_nodes":[],"categories_segments":[],"categories_sizes":[],"default_left":[0,0,0,0,0,0,0,0,0,0,0,0,0,0,0,0,0,0,0,0,0,0,0,0,0,0,0,0,0,0,0,0,0,0,0,0,0,0,0],"id":29,"left_children":[1,3,5,7,9,11,13,15,-1,17,19,21,23,25,-1,-1,-1,-1,-1,-1,27,29,-1,-1,-1,31,-1,-1,-1,-1,33,35,37,-1,-1,-1,-1,-1,-1],"loss_changes":[6.3632298E1,1.1274515E1,2.0011723E1,4.076008E0,2.3576927E0,7.407352E0,5.8377037E0,1.0299287E0,0E0,2.9526803E0,1.5119743E0,3.8824012E0,3.2079968E0,2.419464E0,0E0,0E0,0E0,0E0,0E0,0E0,1.0192815E0,4.101011E0,0E0,0E0,0E0,2.4952126E0,0E0,0E0,0E0,0E0,4.5448518E-1,1.0495834E0,1.7576135E0,0E0,0E0,0E0,0E0,0E0,0E0],"parents":[2147483647,0,0,1,1,2,2,3,3,4,4,5,5,6,6,7,7,9,9,10,10,11,11,12,12,13,13,20,20,21,21,25,25,30,30,31,31,32,32],"right_children":[2,4,6,8,10,12,14,16,-1,18,20,22,24,26,-1,-1,-1,-1,-1,-1,28,30,-1,-1,-1,32,-1,-1,-1,-1,34,36,38,-1,-1,-1,-1,-1,-1],"split_conditions":[5.246482E-1,9.398011E-2,3.1759064E0,8.990247E-2,2.0848917E-2,3.6532865E0,2.1014166E0,1.4461449E-3,-2.4961544E-2,1.5029737E-1,9.548807E-1,8.185572E-3,1.18735366E-1,5.750957E-2,-2.5139963E-2,4.3133773E-2,-1.5617175E-3,3.7372466E-2,-2.5510842E-2,-3.2389164E-2,8.136399E-5,1.6559784E-1,-3.1201502E-2,-2.2005387E-2,4.3429986E-2,1.9050448E-1,-1.826294E-2,2.936484E-2,-1.8833682E-2,-2.7144415E-2,1.3352177E-1,5.210281E-1,1.5352454E-5,3.3274689E-3,4.120445E-2,4.5819703E-2,1.195636E-3,-2.391757E-2,3.1499505E-2],"split_indices":[1905,793,564,1821,1325,1905,1039,1035,0,62,319,174,806,1488,0,0,0,0,0,0,0,703,0,0,0,261,0,0,0,0,27,1821,7,0,0,0,0,0,0],"split_type":[0,0,0,0,0,0,0,0,0,0,0,0,0,0,0,0,0,0,0,0,0,0,0,0,0,0,0,0,0,0,0,0,0,0,0,0,0,0,0],"sum_hessian":[2.4332997E2,1.24347984E2,1.1898199E2,1.1741095E1,1.1260689E2,3.6454983E1,8.2527E1,8.806227E0,2.9348676E0,5.6384225E0,1.0696847E2,2.6833092E1,9.62189E0,7.9778046E1,2.7489588E0,7.363245E0,1.4429822E0,2.2500744E0,3.388348E0,1.0453294E2,2.4355233E0,8.983378E0,1.7849714E1,1.7063768E0,7.915514E0,7.86507E1,1.1273379E0,1.1211668E0,1.3143564E0,3.856691E0,5.126688E0,7.48991E1,3.7516017E0,1.1646357E0,3.962052E0,7.3502365E1,1.396741E0,2.0516553E0,1.6999464E0],"tree_param":{"num_deleted":"0","num_feature":"2048","num_nodes":"39","size_leaf_vector":"1"}},{"base_weights":[-3.262958E-3,-5.22363E-1,5.7686687E-1,7.796931E-2,-6.0311455E-1,7.636826E-1,-2.0468801E-1,-4.058068E-1,7.38283E-1,1.2673712E-1,-6.18427E-1,8.16095E-1,-2.5396695E-2,-5.381527E-1,4.8805463E-1,-2.8727794E-2,2.5528401E-2,4.11428E-2,8.210247E-3,2.7217379E-2,-1.7413372E-2,-6.2941325E-1,-5.506291E-2,8.7550646E-1,-2.616426E-4,-3.0689979E-2,1.0004594E-2,3.977109E-2,-2.1815995E-2,-6.3507855E-1,-4.365559E-3,1.2041391E-2,-1.7460188E-2,4.4970416E-2,1.6643462E-1,-4.2150536E-1,3.317897E-2,-3.2031998E-2,-5.4808683E-3,2.878267E-2,-2.1384995E-2,-6.4375214E-3,-2.4531465E-2],"categories":[],"categories_nodes":[],"categories_segments":[],"categories_sizes":[],"default_left":[0,0,0,0,0,0,0,0,0,0,0,0,0,0,0,0,0,0,0,0,0,0,0,0,0,0,0,0,0,0,0,0,0,0,0,0,0,0,0,0,0,0,0],"id":30,"left_children":[1,3,5,7,9,11,13,15,17,19,21,23,-1,25,27,-1,-1,-1,-1,-1,-1,29,31,33,35,-1,-1,-1,-1,37,-1,-1,-1,-1,39,41,-1,-1,-1,-1,-1,-1,-1],"loss_changes":[7.255683E1,6.211132E0,1.676931E1,5.398321E0,1.3322105E0,6.549053E0,5.5155315E0,1.8176662E0,2.0978689E-1,8.115303E-1,6.465149E-1,4.306286E0,0E0,1.0066195E0,2.59546E0,0E0,0E0,0E0,0E0,0E0,0E0,2.7579117E-1,3.6269668E-1,1.2529526E0,2.243517E0,0E0,0E0,0E0,0E0,2.4123383E-1,0E0,0E0,0E0,0E0,1.2007002E0,3.614992E-2,0E0,0E0,0E0,0E0,0E0,0E0,0E0],"parents":[2147483647,0,0,1,1,2,2,3,3,4,4,5,5,6,6,7,7,8,8,9,9,10,10,11,11,13,13,14,14,21,21,22,22,23,23,24,24,29,29,34,34,35,35],"right_children":[2,4,6,8,10,12,14,16,18,20,22,24,-1,26,28,-1,-1,-1,-1,-1,-1,30,32,34,36,-1,-1,-1,-1,38,-1,-1,-1,-1,40,42,-1,-1,-1,-1,-1,-1,-1],"split_conditions":[5.8701735E0,1.1079469E-1,2.3051782E-1,4.293974E-2,2.5062274E-2,9.916527E-1,1.6802679E0,8.292785E-3,6.773137E-1,8.166141E-2,1.1487233E-1,3.4722686E0,-2.5396695E-2,2.8770797E-5,3.3638213E-2,-2.8727794E-2,2.5528401E-2,4.11428E-2,8.210247E-3,2.7217379E-2,-1.7413372E-2,6.480161E-1,1.4954684E-5,1.171571E0,1.2835222E-1,-3.0689979E-2,1.0004594E-2,3.977109E-2,-2.1815995E-2,4.280496E-2,-4.365559E-3,1.2041391E-2,-1.7460188E-2,4.4970416E-2,1.5057084E-2,3.463141E-1,3.317897E-2,-3.2031998E-2,-5.4808683E-3,2.878267E-2,-2.1384995E-2,-6.4375214E-3,-2.4531465E-2],"split_indices":[1939,1605,1595,1541,787,142,1074,1268,2,1,1839,1523,0,1323,1557,0,0,0,0,0,0,1350,20,925,179,0,0,0,0,2010,0,0,0,0,1,2,0,0,0,0,0,0,0],"split_type":[0,0,0,0,0,0,0,0,0,0,0,0,0,0,0,0,0,0,0,0,0,0,0,0,0,0,0,0,0,0,0,0,0,0,0,0,0,0,0,0,0,0,0],"sum_hessian":[2.389356E2,1.2615326E2,1.1278234E2,1.4961234E1,1.11192024E2,9.104309E1,2.1739243E1,8.857359E0,6.103875E0,2.1353607E0,1.0905666E2,8.778314E1,3.2599497E0,1.48257475E1,6.9134955E0,7.7949443E0,1.0624151E0,4.942409E0,1.1614659E0,1.0586457E0,1.076715E0,1.0685561E2,2.2010496E0,8.176047E1,6.0226808E0,1.3600674E1,1.2250733E0,5.293002E0,1.6204932E0,1.0558072E2,1.2748928E0,1.1876172E0,1.0134323E0,7.8834625E1,2.9258392E0,3.9079328E0,2.114748E0,1.0425807E2,1.3226509E0,1.7509518E0,1.1748874E0,1.2932669E0,2.614666E0],"tree_param":{"num_deleted":"0","num_feature":"2048","num_nodes":"43","size_leaf_vector":"1"}},{"base_weights":[4.800549E-3,-2.4879886E-1,7.8918386E-1,-4.633E-1,2.5777885E-1,8.285964E-1,-2.036873E-2,-5.346809E-1,2.4598272E-1,6.8631065E-1,-1.4848457E-1,8.6127853E-1,-2.7457464E-3,-5.801109E-1,1.06381185E-1,-2.6825761E-2,7.539708E-1,7.923957E-1,-2.1669218E-2,-3.8071936E-1,4.1161355E-2,4.433675E-2,1.9243205E-4,-6.004337E-1,2.8524697E-2,-2.617747E-2,3.958954E-2,4.9117245E-3,4.365949E-2,8.833622E-1,-1.9497626E-2,-5.677823E-1,5.7473135E-1,-3.113455E-2,6.801046E-3,4.6463158E-2,4.2915116E-3,-3.0984908E-2,9.518302E-3,3.8291633E-2,4.532684E-3],"categories":[],"categories_nodes":[],"categories_segments":[],"categories_sizes":[],"default_left":[0,0,0,0,0,0,0,0,0,0,0,0,0,0,0,0,0,0,0,0,0,0,0,0,0,0,0,0,0,0,0,0,0,0,0,0,0,0,0,0,0],"id":31,"left_children":[1,3,5,7,9,11,-1,13,15,17,19,21,-1,23,25,-1,27,29,-1,31,-1,-1,-1,33,-1,-1,-1,-1,-1,35,-1,37,39,-1,-1,-1,-1,-1,-1,-1,-1],"loss_changes":[4.807019E1,1.996426E1,3.1218452E0,6.6454754E0,9.671982E0,1.7072296E0,0E0,3.475296E0,5.353023E0,3.5421934E0,6.866789E0,1.2079086E0,0E0,2.90559E0,4.128417E0,0E0,5.3684616E-1,3.0282173E0,0E0,4.637685E0,0E0,0E0,0E0,1.8581619E0,0E0,0E0,0E0,0E0,0E0,7.796459E-1,0E0,9.317694E-1,3.419093E-1,0E0,0E0,0E0,0E0,0E0,0E0,0E0,0E0],"parents":[2147483647,0,0,1,1,2,2,3,3,4,4,5,5,7,7,8,8,9,9,10,10,11,11,13,13,14,14,16,16,17,17,19,19,23,23,29,29,31,31,32,32],"right_children":[2,4,6,8,10,12,-1,14,16,18,20,22,-1,24,26,-1,28,30,-1,32,-1,-1,-1,34,-1,-1,-1,-1,-1,36,-1,38,40,-1,-1,-1,-1,-1,-1,-1,-1],"split_conditions":[2.2063346E0,3.6712043E-2,1.7133627E0,4.0050173E-1,2.8201935E0,1.106225E0,-2.036873E-2,4.290587E-3,1.8480906E-1,1.3793497E0,1.0757015E0,3.4837934E-1,-2.7457464E-3,1.1215155E0,3.1270742E-1,-2.6825761E-2,3.8807657E-2,5.154729E0,-2.1669218E-2,1.0032155E-1,4.1161355E-2,4.433675E-2,1.9243205E-4,5.452217E0,2.8524697E-2,-2.617747E-2,3.958954E-2,4.9117245E-3,4.365949E-2,2.0207736E-1,-1.9497626E-2,1.0423546E-2,7.356576E-4,-3.113455E-2,6.801046E-3,4.6463158E-2,4.2915116E-3,-3.0984908E-2,9.518302E-3,3.8291633E-2,4.532684E-3],"split_indices":[817,831,543,601,564,412,0,880,518,1796,559,143,0,1464,568,0,380,1989,0,1931,0,0,0,1437,0,0,0,0,0,878,0,2011,13,0,0,0,0,0,0,0,0],"split_type":[0,0,0,0,0,0,0,0,0,0,0,0,0,0,0,0,0,0,0,0,0,0,0,0,0,0,0,0,0,0,0,0,0,0,0,0,0,0,0,0,0],"sum_hessian":[2.3966985E2,1.8162982E2,5.8040028E1,1.27659966E2,5.396986E1,5.648696E1,1.5530661E0,1.1621088E2,1.1449083E1,2.5929632E1,2.8040228E1,5.449625E1,1.9907129E0,1.0860918E2,7.6017046E0,4.4847217E0,6.9643617E0,2.3952566E1,1.977065E0,2.3122297E1,4.9179296E0,5.2891754E1,1.6044967E0,1.07194E2,1.4151764E0,4.084222E0,3.5174823E0,1.3519973E0,5.6123643E0,2.2476189E1,1.4763782E0,1.9675814E1,3.4464848E0,1.0419934E2,2.9946585E0,2.1096813E1,1.3793759E0,1.858573E1,1.0900836E0,2.0536942E0,1.3927906E0],"tree_param":{"num_deleted":"0","num_feature":"2048","num_nodes":"41","size_leaf_vector":"1"}},{"base_weights":[-1.5514202E-3,-4.9173903E-1,5.0244904E-1,3.9356086E-1,-5.885501E-1,-9.502854E-2,7.618037E-1,7.035316E-1,-2.4556166E-2,3.0326443E-2,-6.216293E-1,-3.590266E-1,5.959392E-1,8.102717E-1,-2.4824109E-2,-1.7484557E-3,4.171929E-2,3.6194548E-2,-2.507932E-2,-3.199441E-2,1.096271E-1,1.5280433E-1,-3.0793458E-2,-2.165476E-2,4.1944534E-2,8.311873E-1,-1.7952897E-2,2.865772E-2,-1.8465873E-2,-2.6824681E-2,6.672557E-1,8.589497E-1,-8.150308E-3,3.987507E-2,2.9756068E-3,4.442614E-2,3.2153522E-4],"categories":[],"categories_nodes":[],"categories_segments":[],"categories_sizes":[],"default_left":[0,0,0,0,0,0,0,0,0,0,0,0,0,0,0,0,0,0,0,0,0,0,0,0,0,0,0,0,0,0,0,0,0,0,0,0,0],"id":32,"left_children":[1,3,5,7,9,11,13,15,-1,17,19,21,23,25,-1,-1,-1,-1,-1,-1,27,29,-1,-1,-1,31,-1,-1,-1,-1,33,35,-1,-1,-1,-1,-1],"loss_changes":[5.955608E1,1.0705446E1,1.8490616E1,3.81327E0,2.282215E0,6.9389377E0,5.4637146E0,9.7385216E-1,0E0,2.7843237E0,1.4720573E0,3.6828213E0,3.0052843E0,2.2622223E0,0E0,0E0,0E0,0E0,0E0,0E0,9.6905375E-1,3.8767047E0,0E0,0E0,0E0,2.325611E0,0E0,0E0,0E0,0E0,4.3758607E-1,1.9404526E0,0E0,0E0,0E0,0E0,0E0],"parents":[2147483647,0,0,1,1,2,2,3,3,4,4,5,5,6,6,7,7,9,9,10,10,11,11,12,12,13,13,20,20,21,21,25,25,30,30,31,31],"right_children":[2,4,6,8,10,12,14,16,-1,18,20,22,24,26,-1,-1,-1,-1,-1,-1,28,30,-1,-1,-1,32,-1,-1,-1,-1,34,36,-1,-1,-1,-1,-1],"split_conditions":[5.246482E-1,9.398011E-2,3.1759064E0,8.990247E-2,2.0848917E-2,3.6532865E0,2.1014166E0,1.879201E-2,-2.4556166E-2,1.5029737E-1,9.548807E-1,8.185572E-3,1.18735366E-1,5.750957E-2,-2.4824109E-2,-1.7484557E-3,4.171929E-2,3.6194548E-2,-2.507932E-2,-3.199441E-2,8.136399E-5,1.6559784E-1,-3.0793458E-2,-2.165476E-2,4.1944534E-2,1.475701E0,-1.7952897E-2,2.865772E-2,-1.8465873E-2,-2.6824681E-2,2.6752278E-1,2.4229813E-1,-8.150308E-3,3.987507E-2,2.9756068E-3,4.442614E-2,3.2153522E-4],"split_indices":[1905,793,564,1821,1325,1905,1039,216,0,62,319,174,806,1488,0,0,0,0,0,0,0,703,0,0,0,863,0,0,0,0,34,1025,0,0,0,0,0],"split_type":[0,0,0,0,0,0,0,0,0,0,0,0,0,0,0,0,0,0,0,0,0,0,0,0,0,0,0,0,0,0,0,0,0,0,0,0,0],"sum_hessian":[2.3906418E2,1.21205154E2,1.17859024E2,1.1645579E1,1.0955958E2,3.5866543E1,8.1992485E1,8.775599E0,2.8699808E0,5.563096E0,1.0399648E2,2.6298916E1,9.567628E0,7.92942E1,2.6982872E0,1.431186E0,7.3444123E0,2.2579803E0,3.3051155E0,1.0158493E2,2.4115527E0,8.922798E0,1.7376118E1,1.6779476E0,7.8896804E0,7.818489E1,1.109308E0,1.1255404E0,1.2860122E0,3.795062E0,5.127736E0,7.619326E1,1.9916278E0,3.9656277E0,1.1621082E0,7.3597984E1,2.5952728E0],"tree_param":{"num_deleted":"0","num_feature":"2048","num_nodes":"37","size_leaf_vector":"1"}},{"base_weights":[-3.3800188E-3,-5.1430935E-1,5.589238E-1,7.724923E-2,-5.94998E-1,7.3906404E-1,-2.0107584E-1,-3.9887547E-1,7.1527535E-1,1.2457039E-1,-6.104009E-1,7.89671E-1,-2.5007604E-2,-5.2989465E-1,4.72409E-1,-2.8350899E-2,2.481052E-2,3.991372E-2,7.7422867E-3,2.6443755E-2,-1.7072707E-2,-6.215642E-1,-5.2044917E-2,8.4673417E-1,1.2534055E-3,-3.0242622E-2,1.04817925E-2,3.8506947E-2,-2.1447377E-2,-6.274701E-1,-4.245051E-3,1.2338179E-2,-1.6943183E-2,8.605239E-1,-6.125117E-3,3.231951E-2,-4.1453025E-1,-3.1670645E-2,-4.5913234E-3,4.3506302E-2,5.8201277E-3,-6.2959203E-3,-2.4106702E-2],"categories":[],"categories_nodes":[],"categories_segments":[],"categories_sizes":[],"default_left":[0,0,0,0,0,0,0,0,0,0,0,0,0,0,0,0,0,0,0,0,0,0,0,0,0,0,0,0,0,0,0,0,0,0,0,0,0,0,0,0,0,0,0],"id":33,"left_children":[1,3,5,7,9,11,13,15,17,19,21,23,-1,25,27,-1,-1,-1,-1,-1,-1,29,31,33,35,-1,-1,-1,-1,37,-1,-1,-1,39,-1,-1,41,-1,-1,-1,-1,-1,-1],"loss_changes":[6.790352E1,5.9566193E0,1.5553638E1,5.069284E0,1.285038E0,6.112854E0,5.1990623E0,1.7352525E0,2.0608377E-1,7.6779455E-1,6.343765E-1,3.957405E0,0E0,9.8528576E-1,2.4395962E0,0E0,0E0,0E0,0E0,0E0,0E0,2.7881622E-1,3.568466E-1,1.2020073E0,2.1294723E0,0E0,0E0,0E0,0E0,2.7123642E-1,0E0,0E0,0E0,4.7761536E-1,0E0,0E0,3.3516765E-2,0E0,0E0,0E0,0E0,0E0,0E0],"parents":[2147483647,0,0,1,1,2,2,3,3,4,4,5,5,6,6,7,7,8,8,9,9,10,10,11,11,13,13,14,14,21,21,22,22,23,23,24,24,29,29,33,33,36,36],"right_children":[2,4,6,8,10,12,14,16,18,20,22,24,-1,26,28,-1,-1,-1,-1,-1,-1,30,32,34,36,-1,-1,-1,-1,38,-1,-1,-1,40,-1,-1,42,-1,-1,-1,-1,-1,-1],"split_conditions":[5.8701735E0,1.1079469E-1,2.3051782E-1,4.293974E-2,2.5062274E-2,9.916527E-1,1.6802679E0,8.292785E-3,4.6073314E-2,8.166141E-2,1.1487233E-1,3.4722686E0,-2.5007604E-2,9.876273E-2,3.3638213E-2,-2.8350899E-2,2.481052E-2,3.991372E-2,7.7422867E-3,2.6443755E-2,-1.7072707E-2,1.2237708E1,1.127874E-1,4.3408696E-2,2.13272E-2,-3.0242622E-2,1.04817925E-2,3.8506947E-2,-2.1447377E-2,1.1849889E0,-4.245051E-3,1.2338179E-2,-1.6943183E-2,1.7358184E-1,-6.125117E-3,3.231951E-2,2.2810537E-2,-3.1670645E-2,-4.5913234E-3,4.3506302E-2,5.8201277E-3,-6.2959203E-3,-2.4106702E-2],"split_indices":[1939,1605,1595,1541,787,142,1074,1268,1675,1,1839,1523,0,917,1557,0,0,0,0,0,0,422,1,221,1867,0,0,0,0,1555,0,0,0,1890,0,0,8,0,0,0,0,0,0],"split_type":[0,0,0,0,0,0,0,0,0,0,0,0,0,0,0,0,0,0,0,0,0,0,0,0,0,0,0,0,0,0,0,0,0,0,0,0,0,0,0,0,0,0,0],"sum_hessian":[2.3435208E2,1.2282984E2,1.1152223E2,1.4748166E1,1.0808168E2,9.017572E1,2.1346512E1,8.660287E0,6.087879E0,2.1165514E0,1.05965126E2,8.698615E1,3.1895666E0,1.448677E1,6.859742E0,7.5992785E0,1.0610087E0,4.932922E0,1.1549573E0,1.0611091E0,1.0554423E0,1.03777084E2,2.1880398E0,8.104631E1,5.93984E0,1.3318898E1,1.1678721E0,5.265918E0,1.5938241E0,1.024801E2,1.2969813E0,1.1400186E0,1.0480213E0,8.002E1,1.0263141E0,2.110509E0,3.8293312E0,1.01175064E2,1.3050373E0,7.88334E1,1.1865994E0,1.2700156E0,2.5593157E0],"tree_param":{"num_deleted":"0","num_feature":"2048","num_nodes":"43","size_leaf_vector":"1"}},{"base_weights":[5.1740087E-3,-2.431301E-1,7.633922E-1,-4.393363E-1,2.926041E-1,8.017126E-1,-2.0373352E-2,-4.847267E-1,6.434527E-1,4.569513E-1,-2.8539792E-2,8.461563E-1,-1.4445163E-1,-5.6766737E-1,-6.0155667E-2,7.421897E-3,3.69758E-2,-2.2984874E-2,7.602853E-1,4.3368377E-2,1.9772374E-3,8.581781E-3,-1.879651E-2,-5.896081E-1,3.0990845E-2,7.109766E-1,-5.0441E-1,6.2551636E-1,-3.9335957E-1,8.341845E-1,-3.0178353E-3,-3.0640503E-2,1.8080115E-2,